<?xml version="1.0"?>
<opencv_storage>
<my_svm type_id="opencv-ml-svm">
  <svm_type>C_SVC</svm_type>
  <kernel><type>RBF</type>
    <gamma>2.5000000000000000e+000</gamma></kernel>
  <C>60.</C>
  <term_criteria><epsilon>2.2204460492503131e-016</epsilon>
    <iterations>100</iterations></term_criteria>
  <var_all>100</var_all>
  <var_count>100</var_count>
  <class_count>9</class_count>
  <class_labels type_id="opencv-matrix">
    <rows>1</rows>
    <cols>9</cols>
    <dt>i</dt>
    <data>
      0 1 2 3 4 5 6 7 8</data></class_labels>
  <sv_total>921</sv_total>
  <support_vectors>
    <_>
      1.25000000e-001 0. 0. 0. 0. 0. 0. 0. 0. 0. 0. 0. 0. 0. 0. 0. 0.
      1.25000000e-001 0. 0. 0. 0. 0. 0. 0. 0. 0. 0. 0. 0. 0. 0. 0. 0. 0.
      0. 0. 0. 0. 0. 0. 0. 0. 0. 0. 0. 0. 0. 0. 0. 0. 0. 0. 0. 0. 0. 0.
      0. 0. 0. 1.25000000e-001 0. 0. 0. 0. 0. 0. 0. 0. 0.
      1.25000000e-001 0. 0. 0. 0. 0. 0. 0. 0. 1.25000000e-001 0. 0. 0.
      1.25000000e-001 0. 0. 0. 0. 0. 1.25000000e-001 0. 0. 0. 0. 0. 0.
      0. 1.25000000e-001 0. 0.</_>
    <_>
      2.59740259e-002 0. 0. 0. 1.94805190e-002 0. 0. 0. 1.94805190e-002
      2.59740259e-002 0. 0. 0. 0. 0. 0. 2.59740259e-002 0.
      3.89610380e-002 0. 0. 0. 0. 0. 0. 0. 0. 0. 0. 0. 0. 0. 0. 0. 0.
      7.79220760e-002 3.24675329e-002 1.94805190e-002 8.44155848e-002 0.
      3.89610380e-002 1.29870130e-002 2.59740259e-002 1.94805190e-002 0.
      4.54545468e-002 0. 2.59740259e-002 0. 0. 0. 0. 0. 3.24675329e-002
      0. 6.49350649e-003 0. 0. 0. 0. 5.84415570e-002 0. 0. 0. 0. 0.
      6.49350649e-003 0. 0. 0. 5.19480519e-002 0. 3.89610380e-002 0. 0.
      0. 0. 4.54545468e-002 1.29870130e-002 1.29870130e-002 0.
      5.84415570e-002 0. 0. 0. 1.29870130e-002 0. 0. 4.54545468e-002 0.
      0. 0. 0. 0. 0. 1.29870130e-002 0. 1.94805190e-002 6.49350649e-003
      3.89610380e-002</_>
    <_>
      8.57142881e-002 0. 0. 0. 0. 8.57142881e-002 0. 0. 0.
      2.85714287e-002 0. 5.71428575e-002 0. 0. 0. 0. 0. 0. 0. 0. 0. 0.
      0. 0. 0. 0. 5.71428575e-002 0. 0. 0. 2.85714287e-002 0. 0. 0. 0.
      0. 0. 0. 0. 0. 0. 0. 0. 0. 0. 0. 0. 0. 0. 0. 0. 0. 0. 0. 0.
      2.85714287e-002 8.57142881e-002 0. 0. 0. 2.85714287e-002 0. 0. 0.
      0. 0. 0. 0. 0. 2.85714287e-002 0. 0. 0. 0. 0. 0. 0. 0. 0. 0.
      8.57142881e-002 0. 0. 8.57142881e-002 0. 0. 0. 0. 0. 0. 0. 0.
      8.57142881e-002 0. 0. 2.85714287e-002 8.57142881e-002 0. 0.
      1.14285715e-001</_>
    <_>
      0. 0. 0. 0. 0. 0. 0. 0. 0. 0. 0. 0. 0. 2.22222228e-002 0. 0.
      6.66666701e-002 0. 0. 0. 0. 0. 0. 0. 0. 0. 0. 0. 0. 0. 0. 0. 0. 0.
      0. 1.55555561e-001 0. 0. 0. 0. 0. 6.66666701e-002 1.77777782e-001
      0. 0. 0. 0. 0. 0. 2.22222228e-002 8.88888910e-002 1.55555561e-001
      0. 0. 0. 0. 0. 0. 0. 2.22222228e-002 0. 6.66666701e-002 0. 0. 0.
      0. 0. 0. 0. 0. 0. 0. 2.22222228e-002 6.66666701e-002 0. 0. 0. 0.
      0. 0. 0. 0. 0. 0. 0. 0. 0. 0. 0. 0. 0. 0. 0. 0. 0. 0. 0.
      2.22222228e-002 4.44444455e-002 0.</_>
    <_>
      7.69230798e-002 0. 0. 0. 2.56410260e-002 1.28205135e-001 0. 0. 0.
      5.12820520e-002 0. 5.12820520e-002 0. 0. 0. 0. 0. 0.
      2.56410260e-002 0. 0. 0. 0. 0. 0. 2.56410260e-002 2.56410260e-002
      0. 0. 0. 2.56410260e-002 0. 0. 0. 0. 0. 0. 0. 0. 0.
      2.56410260e-002 0. 0. 0. 0. 0. 0. 0. 0. 0. 0. 0. 0. 0. 0.
      2.56410260e-002 7.69230798e-002 0. 0. 0. 2.56410260e-002 0. 0. 0.
      0. 0. 0. 0. 0. 2.56410260e-002 0. 0. 0. 0. 0. 0. 2.56410260e-002
      0. 0. 0. 5.12820520e-002 0. 0. 5.12820520e-002 0. 0. 0. 0. 0. 0.
      0. 0. 5.12820520e-002 0. 0. 5.12820520e-002 5.12820520e-002 0. 0.
      1.02564104e-001</_>
    <_>
      0. 0. 0. 0. 0. 0. 0. 6.75675720e-002 8.10810849e-002 0. 0. 0. 0.
      0. 0. 0. 8.10810849e-002 0. 0. 0. 0. 0. 0. 0. 0. 0. 0. 0. 0.
      2.70270277e-002 0. 0. 0. 0. 0. 8.10810849e-002 0. 0.
      5.40540554e-002 0. 0. 2.70270277e-002 8.10810849e-002 0. 0. 0. 0.
      0. 0. 4.05405425e-002 2.70270277e-002 2.56756753e-001 0. 0.
      1.35135138e-002 0. 0. 0. 0. 1.35135138e-002 0. 2.70270277e-002 0.
      0. 0. 0. 0. 0. 0. 0. 1.35135138e-002 0. 0. 2.70270277e-002 0. 0.
      0. 0. 0. 0. 0. 0. 0. 0. 0. 0. 0. 0. 0. 0. 0. 0. 0. 0. 0. 0. 0. 0.
      8.10810849e-002 0.</_>
    <_>
      0. 0. 0. 1.43884895e-002 5.75539581e-002 0. 0. 3.59712243e-002 0.
      2.15827338e-002 0. 0. 0. 0. 1.43884895e-002 2.15827338e-002
      7.91366920e-002 0. 2.87769791e-002 0. 0. 0. 0. 0. 0. 0. 0.
      4.31654677e-002 0. 0. 0. 0. 0. 0. 0. 1.43884895e-002 0. 0.
      4.31654677e-002 0. 7.19424477e-003 0. 7.19424477e-003
      7.19424486e-002 0. 4.31654677e-002 0. 0. 0. 0. 0. 1.58273384e-001
      0. 7.19424477e-003 2.15827338e-002 0. 0. 0. 1.43884895e-002 0. 0.
      1.43884895e-002 7.19424477e-003 0. 0. 0. 0. 0. 1.43884895e-002 0.
      4.31654677e-002 0. 0. 0. 1.43884895e-002 0. 0. 7.19424477e-003 0.
      0. 0. 2.15827338e-002 2.15827338e-002 2.15827338e-002 0. 0. 0. 0.
      0. 2.15827338e-002 0. 0. 3.59712243e-002 0. 0. 2.15827338e-002 0.
      2.87769791e-002 0. 2.15827338e-002</_>
    <_>
      4.16666679e-002 0. 0. 4.16666679e-002 2.08333340e-002
      4.16666679e-002 0. 0. 0. 0. 0. 2.08333340e-002 0. 0. 0. 0.
      2.08333340e-002 2.08333340e-002 0. 0. 0. 0. 0. 0. 0.
      4.16666679e-002 0. 0. 0. 0. 0. 0. 0. 0. 2.08333340e-002 0. 0.
      2.08333340e-002 0. 1.25000000e-001 4.16666679e-002 0.
      1.04166672e-001 0. 0. 0. 0. 0. 0. 0. 0. 2.08333340e-002 0. 0. 0.
      0. 0. 0. 2.08333340e-002 2.08333340e-002 0. 0. 0. 0. 0. 0. 0. 0.
      0. 0. 0. 0. 0. 0. 0. 0. 4.16666679e-002 0. 0. 4.16666679e-002
      2.08333340e-002 0. 0. 4.16666679e-002 4.16666679e-002
      2.08333340e-002 0. 0. 4.16666679e-002 0. 0. 0. 0. 0.
      6.25000000e-002 2.08333340e-002 0. 4.16666679e-002 0. 0.</_>
    <_>
      2.70270277e-002 2.70270277e-002 0. 4.05405425e-002 0.
      1.35135138e-002 0. 0. 0. 1.35135138e-002 0. 0. 0. 5.40540554e-002
      0. 1.35135138e-002 0. 2.70270277e-002 0. 0. 0. 0. 0. 0.
      1.35135138e-002 4.05405425e-002 0. 0. 0. 2.70270277e-002
      1.35135138e-002 0. 0. 0. 0. 4.05405425e-002 0. 0. 1.35135138e-002
      5.40540554e-002 4.05405425e-002 0. 9.45945978e-002 0. 0.
      1.35135138e-002 0. 0. 0. 5.40540554e-002 0. 2.70270277e-002
      6.75675720e-002 0. 0. 0. 0. 1.35135138e-002 1.35135138e-002 0. 0.
      0. 0. 0. 2.70270277e-002 0. 0. 0. 0. 0. 0. 0. 2.70270277e-002
      5.40540554e-002 0. 0. 0. 2.70270277e-002 0. 0. 0. 0. 0. 0. 0. 0.
      0. 0. 4.05405425e-002 1.35135138e-002 0. 0. 0. 0. 2.70270277e-002
      0. 0. 4.05405425e-002 0. 0.</_>
    <_>
      0. 0. 0. 0. 0. 1.44927539e-002 0. 0. 0. 5.79710156e-002 0. 0.
      2.89855078e-002 0. 0. 0. 0. 0. 5.79710156e-002 0. 0. 0. 0. 0. 0.
      0. 0. 0. 0. 0. 0. 0. 0. 0. 0. 0. 5.79710156e-002 0. 0. 0.
      2.89855078e-002 0. 0. 0. 0. 1.44927539e-002 0. 0. 0. 0. 0. 0. 0.
      0. 0. 0. 0. 0. 0. 0. 0. 0. 0. 0. 0. 0. 0. 0. 4.34782617e-002 0.
      7.24637657e-002 0. 0. 2.02898562e-001 0. 0. 0. 1.44927531e-001 0.
      0. 0. 0. 0. 1.44927539e-002 0. 0. 0. 2.89855078e-002
      7.24637657e-002 0. 5.79710156e-002 0. 0. 0. 0. 0. 0.
      1.01449281e-001 0. 0.</_>
    <_>
      3.44827585e-002 0. 0. 0. 1.72413792e-002 0. 0. 0. 1.72413792e-002
      3.44827585e-002 0. 0. 0. 0. 0. 0. 1.72413792e-002 0.
      1.72413796e-001 0. 0. 0. 0. 0. 0. 5.17241359e-002 0. 0. 0. 0. 0.
      0. 0. 0. 0. 3.44827585e-002 0. 0. 0. 0. 0. 1.72413792e-002
      1.72413792e-002 0. 1.72413792e-002 0. 0. 0. 0. 0. 0. 0.
      3.44827585e-002 0. 0. 0. 0. 0. 0. 0. 0. 3.44827585e-002
      3.44827585e-002 0. 0. 1.72413792e-002 0. 0. 0. 0. 0. 0.
      1.72413792e-002 0. 0. 0. 0. 1.37931034e-001 8.62068981e-002 0. 0.
      0. 1.72413792e-002 0. 0. 0. 0. 3.44827585e-002 1.72413792e-002 0.
      0. 0. 0. 6.89655170e-002 0. 0. 0. 3.44827585e-002 1.72413792e-002
      1.72413792e-002</_>
    <_>
      0. 0. 0. 0. 0. 0. 0. 0. 0. 6.45161271e-002 0. 0. 0. 0. 0. 0. 0. 0.
      9.67741907e-002 0. 0. 0. 0. 0. 0. 0. 0. 0. 0. 0. 0. 0. 0. 0. 0. 0.
      0. 0. 0. 0. 3.22580636e-002 0. 0. 0. 0. 0. 0. 0. 0. 0. 0. 0.
      6.45161271e-002 0. 0. 0. 0. 6.45161271e-002 0. 0. 0. 0. 0. 0. 0.
      0. 0. 0. 6.45161271e-002 0. 1.29032254e-001 0. 0. 1.29032254e-001
      0. 0. 0. 9.67741907e-002 0. 0. 0. 0. 0. 3.22580636e-002 0. 0. 0.
      0. 0. 0. 6.45161271e-002 0. 0. 0. 0. 0. 0. 1.61290318e-001 0. 0.</_>
    <_>
      0. 0. 0. 0. 3.94736826e-002 0. 0. 0. 1.31578948e-002
      3.94736826e-002 2.63157897e-002 0. 0. 0. 0. 0. 1.31578948e-002 0.
      2.23684207e-001 1.31578948e-002 0. 0. 0. 0. 0. 2.63157897e-002 0.
      0. 0. 0. 0. 0. 0. 0. 0. 5.26315793e-002 0. 0. 0. 0. 0. 0. 0. 0. 0.
      0. 0. 0. 0. 0. 0. 2.63157897e-002 2.63157897e-002 0. 0. 0.
      3.94736826e-002 0. 0. 0. 0. 2.63157897e-002 1.31578948e-002 0.
      1.31578948e-002 1.31578948e-002 0. 0. 0. 0. 1.31578948e-002 0. 0.
      0. 0. 0. 0. 1.05263159e-001 9.21052620e-002 0. 0. 1.31578948e-002
      1.31578948e-002 0. 0. 0. 0. 3.94736826e-002 1.31578948e-002
      2.63157897e-002 0. 0. 1.31578948e-002 5.26315793e-002 0. 0. 0. 0.
      1.31578948e-002 0.</_>
    <_>
      0. 2.33160611e-002 0. 2.84974091e-002 5.18134702e-003 0. 0.
      1.55440411e-002 7.77202053e-003 7.77202053e-003 2.07253881e-002 0.
      0. 0. 1.03626940e-002 3.10880821e-002 3.10880821e-002
      4.14507762e-002 0. 0. 0. 0. 0. 0. 1.81347150e-002 5.18134702e-003
      1.55440411e-002 0. 0. 2.84974091e-002 0. 5.18134702e-003 0. 0.
      2.07253881e-002 1.81347150e-002 0. 5.18134702e-003 3.88601013e-002
      1.03626940e-002 3.36787552e-002 7.77202053e-003 3.10880821e-002 0.
      0. 0. 0. 5.18134702e-003 0. 0. 5.18134702e-003 3.36787552e-002
      1.55440411e-002 5.18134702e-003 1.03626940e-002 1.03626940e-002
      1.55440411e-002 1.29533671e-002 0. 5.18134702e-003 5.18134702e-003
      1.03626940e-002 0. 0. 3.36787552e-002 0. 0. 0. 1.29533671e-002
      1.29533671e-002 2.59067342e-002 0. 0. 5.18134702e-003 0. 0.
      7.77202053e-003 4.14507762e-002 1.29533671e-002 7.77202053e-003
      2.33160611e-002 5.18134702e-003 7.77202053e-003 1.81347150e-002 0.
      2.84974091e-002 0. 0. 2.59067342e-002 1.03626940e-002
      5.18134702e-003 5.18134702e-003 1.03626940e-002 0. 1.03626940e-002
      5.18134702e-003 2.33160611e-002 0. 5.18134702e-003 4.40414511e-002</_>
    <_>
      1.26582282e-002 0. 0. 1.26582282e-002 0. 0. 0. 2.53164563e-002 0.
      0. 0. 1.26582282e-002 0. 1.26582282e-002 0. 2.53164563e-002 0.
      3.79746854e-002 0. 0. 0. 1.26582282e-002 1.26582282e-002 0.
      7.59493709e-002 0. 0. 0. 0. 2.53164563e-002 0. 0. 0. 0.
      3.79746854e-002 2.53164563e-002 0. 0. 0. 0. 0. 0. 3.79746854e-002
      1.26582282e-002 0. 0. 0. 0. 0. 1.26582282e-002 0. 2.53164563e-002
      0. 0. 1.26582282e-002 0. 7.59493709e-002 0. 0. 0. 0.
      6.32911399e-002 0. 0. 2.53164563e-002 0. 0. 0. 2.53164563e-002
      2.53164563e-002 0. 0. 0. 0. 0. 0. 0. 1.26582282e-002
      2.53164563e-002 0. 8.86075944e-002 0. 0. 0. 0. 2.53164563e-002 0.
      1.26582282e-002 5.06329127e-002 0. 1.26582282e-002 2.53164563e-002
      0. 2.53164563e-002 1.26582282e-002 0. 1.26582282e-002 0. 0.
      5.06329127e-002</_>
    <_>
      0. 6.31067976e-002 0. 2.42718458e-002 0. 2.42718458e-002
      4.36893217e-002 9.70873795e-003 0. 1.45631069e-002 0. 0. 0. 0.
      1.45631069e-002 0. 4.85436916e-002 0. 0. 0. 0. 1.94174759e-002 0.
      0. 0. 0. 0. 4.85436916e-002 0. 7.28155375e-002 0. 0. 0. 0.
      9.70873795e-003 1.94174759e-002 0. 1.45631069e-002 0. 0.
      9.70873795e-003 1.94174759e-002 0. 0. 0. 9.70873795e-003 0. 0. 0.
      0. 3.88349518e-002 9.70873795e-003 2.42718458e-002 0.
      2.91262139e-002 0. 0. 0. 0. 0. 0. 0. 0. 0. 9.70873795e-003 0. 0.
      1.94174759e-002 3.88349518e-002 9.70873795e-003 0. 3.39805819e-002
      1.94174759e-002 1.94174759e-002 0. 1.45631069e-002 0. 0.
      1.45631069e-002 9.70873795e-003 3.39805819e-002 2.91262139e-002 0.
      0. 0. 4.85436916e-002 2.91262139e-002 0. 0. 1.94174759e-002 0. 0.
      0. 9.70873795e-003 9.70873795e-003 0. 0. 0. 9.70873795e-003
      9.70873795e-003</_>
    <_>
      0. 0. 0. 0. 0. 6.31579012e-002 0. 2.10526325e-002 0.
      9.47368443e-002 0. 1.05263162e-002 0. 0. 0. 6.31579012e-002
      2.10526325e-002 0. 4.21052650e-002 7.36842155e-002 0. 0. 0. 0.
      1.05263159e-001 0. 0. 0. 0. 0. 0. 0. 0. 0. 0. 0. 0. 0.
      1.05263162e-002 0. 0. 8.42105299e-002 0. 0. 0. 0. 0. 0. 0.
      5.26315793e-002 0. 0. 0. 0. 0. 0. 0. 0. 0. 0. 2.10526325e-002 0.
      0. 0. 2.10526325e-002 0. 0. 0. 0. 0. 0. 0. 0. 0. 0. 0. 0. 0.
      7.36842155e-002 0. 1.05263162e-002 0. 8.42105299e-002
      1.05263162e-002 0. 0. 0. 0. 0. 3.15789506e-002 0. 2.10526325e-002
      3.15789506e-002 0. 0. 1.05263162e-002 0. 4.21052650e-002 0. 0.</_>
    <_>
      0. 1.50943398e-001 0. 0. 0. 1.32075474e-001 0. 0. 0. 0. 0. 0. 0.
      0. 0. 0. 0. 0. 0. 0. 0. 1.88679248e-002 0. 0. 0. 0. 0. 0. 0.
      3.77358496e-002 0. 0. 0. 0. 0. 0. 0. 0. 1.88679248e-002 0. 0. 0.
      0. 0. 0. 0. 0. 0. 0. 0. 3.77358496e-002 3.77358496e-002
      1.88679248e-002 0. 0. 0. 0. 0. 1.13207549e-001 0. 7.54716992e-002
      0. 0. 0. 3.77358496e-002 0. 1.88679248e-002 0. 1.88679248e-002 0.
      5.66037744e-002 0. 0. 0. 3.77358496e-002 0. 0. 3.77358496e-002 0.
      1.88679248e-002 1.32075474e-001 0. 0. 0. 0. 0. 0. 0. 0. 0. 0. 0.
      0. 0. 0. 0. 0. 0. 0. 0.</_>
    <_>
      3.12500000e-002 1.25000002e-002 0. 3.75000015e-002 0.
      6.25000009e-003 1.25000002e-002 1.25000002e-002 0. 0. 0. 0. 0.
      2.50000004e-002 0. 0. 3.75000015e-002 0. 3.12500000e-002
      1.87500007e-002 0. 3.75000015e-002 0. 0. 0. 0. 6.25000009e-003 0.
      0. 3.12500000e-002 0. 0. 2.50000004e-002 0. 1.25000002e-002 0.
      2.50000004e-002 0. 0. 0. 0. 0. 1.31250009e-001 1.25000002e-002 0.
      0. 0. 0. 6.25000009e-003 0. 3.75000015e-002 0. 6.25000009e-003 0.
      0. 0. 6.25000009e-003 0. 0. 5.00000007e-002 0. 0. 1.18749999e-001
      0. 6.25000009e-003 1.25000002e-002 0. 0. 0. 0. 0. 1.25000002e-002
      2.50000004e-002 0. 0. 1.25000002e-002 1.25000002e-002 0. 0. 0.
      1.25000002e-002 1.87500007e-002 6.25000009e-003 0. 3.12500000e-002
      4.37499993e-002 0. 0. 0. 0. 3.12500000e-002 0. 0. 0. 0. 0. 0. 0.
      0. 4.37499993e-002</_>
    <_>
      0. 2.43902430e-002 0. 0. 0. 2.43902430e-002 0. 0. 0. 0.
      2.43902430e-002 0. 0. 0. 0. 0. 0. 0. 1.21951215e-002 0. 0.
      8.53658468e-002 0. 2.43902430e-002 0. 0. 1.21951215e-002 0.
      1.21951215e-002 0. 0. 0. 0. 0. 0. 2.19512194e-001 0. 0. 0. 0. 0.
      0. 4.87804860e-002 0. 0. 3.65853645e-002 0. 0. 0. 0. 0.
      8.53658468e-002 0. 0. 0. 0. 0. 0. 0. 0. 0. 1.21951215e-002 0. 0.
      0. 0. 2.43902430e-002 0. 4.87804860e-002 0. 2.43902430e-002
      2.43902430e-002 0. 3.65853645e-002 0. 0. 0. 2.43902430e-002
      1.21951215e-002 0. 8.53658468e-002 0. 0. 0. 0. 0. 3.65853645e-002
      0. 1.21951215e-002 0. 1.21951215e-002 0. 0. 0. 0. 0. 0. 0.
      1.21951215e-002 2.43902430e-002</_>
    <_>
      0. 6.36363626e-002 0. 9.09090880e-003 9.09090880e-003
      6.36363626e-002 0. 2.72727273e-002 0. 1.81818176e-002
      3.63636352e-002 0. 0. 6.36363626e-002 0. 0. 0. 0. 0. 0. 0.
      1.81818176e-002 0. 0. 0. 0. 0. 2.72727273e-002 0. 0.
      9.09090880e-003 9.09090880e-003 0. 0. 9.09090880e-003
      1.81818176e-002 9.09090880e-003 0. 0. 1.81818176e-002 0.
      4.54545431e-002 9.09090880e-003 9.09090880e-003 3.63636352e-002
      3.63636352e-002 0. 0. 0. 9.09090880e-003 0. 2.72727273e-002
      1.81818176e-002 0. 9.09090880e-003 0. 0. 0. 0. 0. 2.72727273e-002
      0. 0. 0. 0. 0. 0. 0. 9.09090880e-003 1.81818176e-002
      2.72727273e-002 5.45454547e-002 0. 9.09090880e-003 0. 0. 0.
      6.36363626e-002 9.09090880e-003 0. 0. 1.81818176e-002
      9.09090880e-003 0. 0. 0. 1.81818176e-002 0. 0. 0. 5.45454547e-002
      0. 2.72727273e-002 0. 2.72727273e-002 0. 0. 0. 0. 1.81818176e-002</_>
    <_>
      0. 0. 0. 0. 0. 3.57142873e-002 0. 1.78571437e-002 0.
      5.35714328e-002 7.14285746e-002 1.78571437e-002 1.78571437e-002 0.
      0. 3.57142873e-002 1.78571437e-002 0. 0. 0. 0. 0. 5.35714328e-002
      1.78571437e-002 0. 0. 0. 0. 0. 0. 0. 0. 0. 0. 0. 0.
      1.78571437e-002 0. 0. 0. 0. 0. 0. 0. 3.57142873e-002 0.
      1.78571437e-002 1.78571437e-002 1.78571437e-002 5.35714328e-002 0.
      0. 3.57142873e-002 0. 0. 0. 8.92857164e-002 0. 0. 0.
      1.78571437e-002 0. 0. 0. 0. 1.78571437e-002 0. 0. 0.
      3.57142873e-002 1.78571437e-002 0. 3.57142873e-002 0.
      1.78571437e-002 0. 0. 0. 0. 0. 0. 3.57142873e-002 0. 0. 0. 0. 0.
      0. 1.78571437e-002 3.57142873e-002 0. 0. 3.57142873e-002
      1.78571437e-002 0. 5.35714328e-002 0. 3.57142873e-002 0. 0.</_>
    <_>
      0. 1.63934417e-002 0. 0. 1.22950813e-002 2.45901626e-002 0. 0.
      8.19672085e-003 1.63934417e-002 0. 1.22950813e-002 0. 0.
      8.19672085e-003 2.04918012e-002 1.22950813e-002 1.22950813e-002
      1.22950813e-002 1.22950813e-002 0. 2.45901626e-002 2.04918012e-002
      0. 8.19672085e-003 0. 0. 0. 0. 3.68852429e-002 1.22950813e-002 0.
      2.04918012e-002 2.04918012e-002 2.04918012e-002 1.22950813e-002
      4.09836024e-002 0. 0. 2.45901626e-002 0. 8.19672085e-003 0.
      2.04918012e-002 0. 0. 8.19672085e-003 0. 0. 0. 2.04918012e-002
      8.19672085e-003 0. 2.45901626e-002 0. 0. 2.04918012e-002
      8.19672085e-003 1.22950813e-002 0. 0. 0. 0. 1.22950813e-002 0.
      1.63934417e-002 0. 0. 3.68852429e-002 1.63934417e-002 0.
      1.22950813e-002 0. 0. 8.19672085e-003 1.22950813e-002 0. 0.
      1.63934417e-002 2.86885239e-002 0. 2.45901626e-002 0.
      1.63934417e-002 0. 2.04918012e-002 0. 2.45901626e-002
      3.27868834e-002 2.04918012e-002 2.04918012e-002 0. 0. 0.
      2.45901626e-002 8.19672085e-003 8.19672085e-003 0. 2.04918012e-002
      8.19672085e-003</_>
    <_>
      0. 0. 7.99999982e-002 0. 0. 0. 0. 0. 0. 0. 3.99999991e-002 0.
      3.99999991e-002 0. 0. 0. 0. 0. 0. 0. 0. 0. 0. 7.99999982e-002 0.
      0. 3.99999991e-002 0. 0. 3.99999991e-002 0. 0. 0. 0. 0.
      7.99999982e-002 0. 0. 0. 0. 0. 0. 7.99999982e-002 0. 0. 0. 0. 0.
      0. 0. 0. 0. 0. 0. 0. 7.99999982e-002 0. 0. 0. 0. 0.
      1.59999996e-001 0. 0. 0. 0. 3.99999991e-002 0. 0. 0. 0. 0. 0. 0.
      3.99999991e-002 0. 0. 0. 0. 0. 0. 0. 0. 0. 0. 0. 0.
      1.19999997e-001 0. 0. 3.99999991e-002 0. 0. 0. 0. 0. 0.
      3.99999991e-002 0. 0.</_>
    <_>
      5.26315793e-002 0. 0. 1.57894731e-001 0. 5.26315793e-002 0. 0. 0.
      0. 0. 0. 0. 0. 0. 0. 0. 0. 0. 0. 0. 0. 0. 0. 0. 0. 0. 0. 0. 0. 0.
      0. 0. 0. 0. 0. 0. 0. 0. 2.10526317e-001 1.05263159e-001 0.
      2.63157904e-001 0. 0. 0. 0. 0. 0. 0. 0. 0. 0. 0. 0. 0. 0. 0. 0. 0.
      0. 0. 0. 0. 0. 0. 0. 0. 0. 0. 0. 0. 0. 5.26315793e-002 0. 0. 0. 0.
      0. 0. 0. 0. 0. 0. 0. 0. 0. 0. 0. 0. 0. 0. 0. 0. 1.05263159e-001 0.
      0. 0. 0. 0.</_>
    <_>
      3.48837227e-002 0. 0. 1.16279069e-002 0. 2.32558139e-002
      2.32558139e-002 1.16279069e-002 0. 3.48837227e-002 1.16279069e-002
      0. 0. 3.48837227e-002 0. 0. 1.16279069e-002 1.16279069e-002 0. 0.
      0. 0. 1.16279069e-002 0. 0. 0. 0. 0. 2.32558139e-002 0.
      1.16279069e-002 1.16279069e-002 0. 1.16279069e-002 0. 0. 0. 0. 0.
      3.48837227e-002 0. 0. 1.16279069e-002 2.32558139e-002
      2.32558139e-002 3.48837227e-002 0. 0. 2.32558139e-002
      1.16279069e-002 0. 0. 0. 1.16279069e-002 2.32558139e-002 0.
      1.16279069e-002 0. 4.65116277e-002 0. 0. 0. 1.16279069e-002 0.
      2.32558139e-002 2.32558139e-002 1.16279069e-002 5.81395328e-002
      3.48837227e-002 1.16279069e-002 1.16279069e-002 0. 1.16279069e-002
      1.16279069e-002 1.16279069e-002 2.32558139e-002 0. 0.
      4.65116277e-002 0. 0. 1.16279069e-002 0. 0. 1.16279069e-002 0. 0.
      1.16279069e-002 0. 1.16279069e-002 0. 0. 1.16279069e-002 0.
      2.32558139e-002 3.48837227e-002 0. 1.16279069e-002 3.48837227e-002
      1.16279069e-002</_>
    <_>
      7.57575780e-003 3.03030312e-002 1.51515156e-002 7.57575780e-003
      2.27272734e-002 1.51515156e-002 0. 5.30303046e-002 7.57575780e-003
      0. 1.51515156e-002 0. 7.57575780e-003 0. 7.57575780e-003 0.
      2.27272734e-002 0. 7.57575780e-003 0. 0. 0. 7.57575780e-003
      7.57575780e-003 2.27272734e-002 0. 7.57575780e-003 2.27272734e-002
      0. 7.57575780e-003 3.03030312e-002 7.57575780e-003 7.57575780e-003
      7.57575780e-003 1.51515156e-002 0. 1.51515156e-002 0. 0.
      7.57575780e-003 7.57575780e-003 1.51515156e-002 7.57575780e-003 0.
      2.27272734e-002 0. 0. 1.51515156e-002 7.57575780e-003
      3.03030312e-002 1.51515156e-002 1.51515156e-002 2.27272734e-002 0.
      0. 1.51515156e-002 7.57575780e-003 5.30303046e-002 1.51515156e-002
      0. 0. 7.57575780e-003 3.03030312e-002 1.51515156e-002 0. 0. 0.
      7.57575780e-003 3.03030312e-002 7.57575780e-003 0. 2.27272734e-002
      1.51515156e-002 1.51515156e-002 2.27272734e-002 7.57575780e-003
      7.57575780e-003 0. 7.57575780e-003 0. 7.57575780e-003 0.
      7.57575780e-003 3.78787890e-002 7.57575780e-003 1.51515156e-002 0.
      0. 0. 0. 0. 1.51515156e-002 0. 0. 3.03030312e-002 7.57575780e-003
      1.51515156e-002 1.51515156e-002 0. 7.57575780e-003</_>
    <_>
      1.26582282e-002 0. 0. 0. 0. 2.53164563e-002 1.26582282e-002 0.
      1.26582282e-002 0. 1.26582282e-002 2.53164563e-002 2.53164563e-002
      0. 0. 0. 0. 5.06329127e-002 0. 0. 0. 0. 0. 1.26582282e-002 0.
      2.53164563e-002 0. 1.26582282e-002 0. 1.26582282e-002
      1.26582282e-002 0. 0. 1.26582282e-002 0. 0. 0. 0. 1.26582282e-002
      0. 2.53164563e-002 0. 1.26582282e-002 1.26582282e-002 0. 0. 0. 0.
      0. 6.32911399e-002 0. 0. 0. 0. 0. 1.26582282e-002 1.26582282e-002
      0. 3.79746854e-002 0. 2.53164563e-002 0. 0. 0. 1.26582282e-002
      2.53164563e-002 1.26582282e-002 0. 0. 8.86075944e-002 0. 0.
      1.26582282e-002 1.01265825e-001 0. 0. 0. 0. 1.26582282e-002 0.
      2.53164563e-002 0. 1.26582282e-002 2.53164563e-002 0.
      1.26582282e-002 1.26582282e-002 0. 1.26582282e-002 0. 0.
      1.26582282e-002 1.26582282e-002 1.26582282e-002 0. 7.59493709e-002
      1.26582282e-002 0. 0. 2.53164563e-002</_>
    <_>
      0. 0. 3.25581394e-002 1.86046511e-002 0. 1.39534883e-002
      1.39534883e-002 2.79069766e-002 0. 9.30232555e-003 9.30232555e-003
      0. 2.32558139e-002 0. 9.30232555e-003 2.79069766e-002 0. 0. 0. 0.
      0. 0. 0. 0. 0. 0. 0. 0. 0. 5.11627905e-002 1.39534883e-002 0. 0.
      0. 1.86046511e-002 2.32558139e-002 1.39534883e-002 0. 0. 0.
      9.30232555e-003 0. 3.25581394e-002 0. 4.65116277e-002 0. 0. 0.
      9.30232555e-003 1.39534883e-002 1.39534883e-002 1.86046511e-002
      9.30232555e-003 0. 1.86046511e-002 9.30232555e-003 9.30232555e-003
      2.79069766e-002 9.30232555e-003 0. 1.39534883e-002 3.25581394e-002
      2.32558139e-002 1.86046511e-002 0. 0. 0. 9.30232555e-003
      2.32558139e-002 0. 0. 1.39534883e-002 0. 9.30232555e-003 0. 0. 0.
      1.86046511e-002 0. 1.39534883e-002 1.39534883e-002 0.
      9.30232555e-003 0. 0. 9.30232555e-003 9.30232555e-003 0.
      1.39534883e-002 2.32558139e-002 0. 9.30232555e-003 0.
      1.86046511e-002 1.86046511e-002 1.39534883e-002 0. 0. 0.
      3.25581394e-002</_>
    <_>
      2.04081628e-002 1.02040814e-002 0. 1.02040814e-002 1.02040814e-002
      0. 0. 0. 0. 0. 1.02040814e-002 0. 2.04081628e-002 0.
      1.02040814e-002 2.04081628e-002 0. 1.02040814e-002 0.
      3.06122452e-002 0. 1.02040814e-002 3.06122452e-002 1.02040814e-002
      1.02040814e-002 0. 2.04081628e-002 3.06122452e-002 0.
      5.10204062e-002 3.06122452e-002 0. 2.04081628e-002 0.
      1.02040814e-002 0. 0. 0. 0. 2.04081628e-002 2.04081628e-002 0. 0.
      0. 0. 3.06122452e-002 0. 0. 0. 4.08163257e-002 1.02040814e-002 0.
      1.02040814e-002 0. 1.02040814e-002 0. 1.02040814e-002
      1.02040814e-002 0. 1.02040814e-002 3.06122452e-002 1.02040814e-002
      0. 0. 0. 3.06122452e-002 0. 1.02040814e-002 0. 1.02040814e-002
      2.04081628e-002 5.10204062e-002 1.02040814e-002 2.04081628e-002 0.
      0. 0. 0. 0. 0. 1.02040814e-002 4.08163257e-002 0. 1.02040814e-002
      0. 1.02040814e-002 1.02040814e-002 0. 7.14285672e-002 0.
      1.02040814e-002 0. 1.02040814e-002 0. 1.02040814e-002
      1.02040814e-002 0. 0. 0. 6.12244904e-002</_>
    <_>
      0. 0. 1.69491526e-002 0. 0. 0. 0. 5.08474559e-002 0. 0.
      5.08474559e-002 0. 0. 1.69491526e-002 0. 0. 0. 0. 0. 0. 0. 0.
      6.77966103e-002 1.69491526e-002 0. 0. 0. 1.69491526e-002 0. 0. 0.
      0. 0. 1.69491526e-002 0. 0. 3.38983051e-002 0. 0. 0. 0. 0. 0. 0.
      1.35593221e-001 0. 0. 0. 3.38983051e-002 0. 0. 0. 1.52542368e-001
      0. 5.08474559e-002 0. 0. 6.77966103e-002 0. 1.69491526e-002
      1.69491526e-002 1.69491526e-002 3.38983051e-002 0. 0. 0. 0. 0. 0.
      1.69491526e-002 1.69491526e-002 0. 0. 0. 0. 0. 3.38983051e-002 0.
      0. 0. 0. 1.69491526e-002 0. 0. 0. 0. 0. 0. 0. 5.08474559e-002 0.
      0. 0. 0. 3.38983051e-002 0. 1.69491526e-002 0. 0. 0.</_>
    <_>
      1.06666666e-002 1.33333337e-002 0. 0. 2.40000002e-002
      5.33333328e-003 7.99999945e-003 1.86666660e-002 5.33333328e-003
      5.33333328e-003 1.33333337e-002 0. 0. 1.86666660e-002
      4.80000004e-002 5.33333346e-002 7.99999945e-003 1.59999989e-002 0.
      7.99999945e-003 0. 0. 7.99999945e-003 0. 2.93333326e-002 0.
      7.99999945e-003 1.59999989e-002 2.13333331e-002 3.99999991e-002 0.
      5.33333328e-003 0. 0. 2.40000002e-002 5.33333328e-003 0.
      1.06666666e-002 0. 2.40000002e-002 5.33333328e-003 2.93333326e-002
      1.33333337e-002 5.33333328e-003 0. 0. 0. 0. 0. 7.99999945e-003
      1.86666660e-002 0. 1.59999989e-002 0. 5.33333328e-003
      1.06666666e-002 0. 0. 1.33333337e-002 3.19999978e-002 0.
      7.99999945e-003 0. 5.33333328e-003 7.99999945e-003 0. 0.
      1.59999989e-002 1.06666666e-002 5.33333328e-003 7.99999945e-003
      2.13333331e-002 5.33333328e-003 2.66666673e-002 0. 0. 0. 0. 0.
      2.93333326e-002 3.99999991e-002 1.06666666e-002 1.33333337e-002 0.
      1.86666660e-002 7.99999945e-003 1.06666666e-002 5.33333328e-003 0.
      7.99999945e-003 0. 2.13333331e-002 1.33333337e-002 0.
      5.33333328e-003 7.99999945e-003 0. 1.33333337e-002 0.
      2.66666673e-002</_>
    <_>
      3.03030312e-002 0. 0. 0. 0. 0. 0. 4.54545468e-002 0.
      4.54545468e-002 1.51515156e-002 1.51515156e-002 0. 0. 0. 0. 0. 0.
      0. 0. 0. 0. 0. 4.54545468e-002 0. 0. 0. 0. 0. 0. 0. 0. 0. 0. 0.
      6.06060624e-002 1.51515156e-002 0. 0. 0. 3.03030312e-002
      1.51515156e-002 0. 0. 3.03030312e-002 0. 0. 0. 1.51515156e-002 0.
      0. 0. 0. 0. 0. 0. 6.06060624e-002 7.57575780e-002 0. 0. 0. 0.
      1.51515156e-002 1.51515156e-002 0. 0. 0. 0. 0. 9.09090936e-002
      3.03030312e-002 0. 0. 0. 0. 3.03030312e-002 6.06060624e-002
      4.54545468e-002 3.03030312e-002 0. 0. 0. 0. 1.51515156e-002 0. 0.
      0. 0. 0. 0. 0. 4.54545468e-002 0. 0. 0. 0. 0. 3.03030312e-002
      9.09090936e-002 0.</_>
    <_>
      2.27272734e-002 0. 0. 0. 0. 0. 0. 0. 0. 2.27272734e-002 0. 0. 0.
      0. 0. 0. 0. 0. 4.54545468e-002 0. 0. 0. 0. 2.27272734e-002 0. 0.
      0. 6.81818202e-002 0. 0. 0. 0. 0. 1.59090906e-001 0.
      2.27272734e-002 0. 6.81818202e-002 0. 0. 2.04545468e-001 0. 0. 0.
      0. 0. 0. 2.27272734e-002 0. 0. 0. 0. 0. 0. 2.27272734e-002 0.
      2.27272734e-002 0. 0. 0. 1.59090906e-001 0. 0. 0. 0. 0. 0. 0. 0.
      0. 0. 0. 0. 0. 0. 0. 4.54545468e-002 2.27272734e-002 0. 0. 0. 0.
      0. 4.54545468e-002 0. 0. 0. 0. 0. 0. 0. 0. 0. 0. 0. 0.
      2.27272734e-002 0. 0. 0.</_>
    <_>
      0. 0. 0. 1.11111114e-002 7.77777806e-002 3.33333351e-002
      1.11111114e-002 4.44444455e-002 3.33333351e-002 1.11111114e-002 0.
      0. 0. 0. 3.33333351e-002 2.22222228e-002 0. 5.55555560e-002
      1.11111114e-002 0. 0. 0. 0. 2.22222228e-002 0. 0. 0.
      2.22222228e-002 0. 0. 0. 0. 0. 0. 3.33333351e-002 0. 0. 0.
      3.33333351e-002 0. 0. 0. 0. 0. 0. 1.11111114e-002 0.
      4.44444455e-002 1.11111114e-002 4.44444455e-002 0. 0. 0. 0.
      2.22222228e-002 7.77777806e-002 1.11111114e-002 0. 0. 0. 0.
      2.22222228e-002 0. 0. 0. 0. 0. 1.11111114e-002 0. 2.22222228e-002
      0. 0. 0. 0. 0. 0. 0. 0. 2.22222228e-002 0. 0. 0. 1.11111114e-002
      0. 1.11111114e-002 0. 0. 0. 0. 0. 4.44444455e-002 2.22222228e-002
      3.33333351e-002 0. 0. 0. 2.22222228e-002 3.33333351e-002 0.
      6.66666701e-002</_>
    <_>
      1.76991150e-002 0. 0. 1.76991150e-002 4.42477874e-002 0.
      8.84955749e-003 8.84955749e-003 0. 1.76991150e-002 0. 0. 0. 0.
      5.30973449e-002 8.84955749e-003 1.76991150e-002 0. 0. 0. 0.
      1.76991150e-002 0. 0. 0. 0. 0. 1.76991150e-002 0. 0.
      1.76991150e-002 0. 0. 0. 8.84955749e-003 0. 0. 0. 0.
      5.30973449e-002 8.84955749e-003 6.19469024e-002 6.19469024e-002 0.
      0. 0. 0. 5.30973449e-002 1.76991150e-002 0. 0. 0. 8.84955749e-003
      0. 1.76991150e-002 8.84955749e-003 0. 0. 0. 0. 0. 0. 0. 0. 0.
      1.76991150e-002 0. 0. 1.76991150e-002 0. 0. 0. 0. 0. 0. 0. 0.
      8.84955749e-003 0. 0. 0. 0. 8.84955749e-002 6.19469024e-002 0. 0.
      3.53982300e-002 2.65486725e-002 0. 8.84955749e-003 8.84955749e-002
      0. 0. 1.76991150e-002 0. 7.96460211e-002 0. 0. 0. 0.</_>
    <_>
      0. 0. 0. 0. 0. 1.11111112e-001 0. 0. 0. 0. 0. 0. 0. 0. 0. 0. 0. 0.
      0. 0. 0. 0. 0. 1.11111112e-001 0. 0. 0. 0. 0. 0. 0. 0. 0. 0. 0. 0.
      5.55555560e-002 0. 0. 0. 0. 0. 0. 0. 0. 0. 0. 0. 0. 0. 0. 0.
      5.55555560e-002 0. 0. 0. 0. 0. 0. 1.11111112e-001 5.55555560e-002
      0. 5.55555560e-002 0. 0. 0. 0. 0. 0. 0. 0. 0. 5.55555560e-002 0.
      0. 0. 0. 0. 2.77777791e-001 5.55555560e-002 0. 0. 0. 0. 0. 0. 0.
      0. 0. 0. 0. 0. 0. 0. 0. 0. 0. 0. 5.55555560e-002 0.</_>
    <_>
      1.92307699e-002 0. 0. 0. 0. 0. 0. 0. 0. 1.92307699e-002 0. 0. 0.
      0. 3.84615399e-002 0. 0. 0. 0. 0. 1.92307699e-002 0. 0. 0.
      1.53846160e-001 0. 3.84615399e-002 0. 1.92307699e-002 0.
      5.76923117e-002 0. 0. 1.92307699e-002 0. 0. 0. 0. 1.92307699e-002
      1.92307699e-002 0. 0. 1.92307699e-002 0. 0. 0. 0. 0. 0. 0. 0.
      1.92307699e-002 5.76923117e-002 3.84615399e-002 0. 0.
      5.76923117e-002 0. 0. 0. 0. 1.92307699e-002 0. 1.92307699e-002 0.
      1.92307699e-002 0. 0. 0. 0. 0. 0. 1.92307699e-002 0. 0. 0.
      3.84615399e-002 0. 0. 0. 0. 0. 0. 0. 0. 0. 0. 1.92307699e-002 0.
      1.53846160e-001 0. 0. 0. 0. 0. 0. 0. 1.92307699e-002
      7.69230798e-002 0.</_>
    <_>
      0. 0. 0. 1.66666672e-001 0. 0. 0. 0. 0. 0. 0. 0. 0. 0. 0. 0. 0. 0.
      0. 0. 0. 0. 0. 1.66666672e-001 0. 0. 0. 0. 0. 0. 0. 0. 0. 0. 0. 0.
      0. 0. 0. 0. 0. 0. 0. 1.66666672e-001 0. 0. 0. 0. 0. 0. 0. 0. 0. 0.
      0. 0. 0. 0. 0. 0. 1.66666672e-001 0. 0. 0. 0. 0. 0. 0. 0. 0. 0. 0.
      1.66666672e-001 0. 0. 0. 0. 0. 0. 0. 0. 0. 0. 0. 0. 0. 0. 0. 0.
      1.66666672e-001 0. 0. 0. 0. 0. 0. 0. 0. 0. 0.</_>
    <_>
      8.77192989e-003 0. 0. 0. 1.75438598e-002 0. 8.77192989e-003 0.
      3.50877196e-002 0. 0. 0. 0. 0. 0. 0. 0. 5.26315793e-002 0.
      8.77192989e-003 0. 3.50877196e-002 4.38596494e-002 0. 0. 0. 0. 0.
      0. 4.38596494e-002 3.50877196e-002 0. 1.75438598e-002 0. 0.
      8.77192989e-003 0. 0. 2.63157897e-002 4.38596494e-002 0. 0.
      5.26315793e-002 3.50877196e-002 0. 0. 0. 0. 5.26315793e-002
      8.77192989e-002 0. 1.40350878e-001 6.14035092e-002 0. 0. 0.
      8.77192989e-003 0. 0. 0. 0. 0. 0. 2.63157897e-002 0. 0.
      8.77192989e-003 4.38596494e-002 0. 0. 1.75438598e-002 0. 0. 0. 0.
      0. 8.77192989e-003 8.77192989e-003 0. 1.75438598e-002 0. 0. 0. 0.
      8.77192989e-003 0. 0. 8.77192989e-003 0. 0. 0. 0. 0. 0. 0. 0. 0.
      0. 0. 2.63157897e-002</_>
    <_>
      0. 1.02564104e-001 0. 0. 0. 0. 0. 0. 0. 0. 0. 0. 0. 0. 0. 0.
      7.69230798e-002 0. 0. 0. 0. 0. 0. 0. 0. 0. 0. 0. 0. 0. 0. 0. 0. 0.
      0. 0. 3.07692319e-001 0. 0. 0. 0. 0. 0. 0. 0. 0. 0. 0. 0. 0. 0. 0.
      0. 2.56410271e-001 0. 0. 0. 0. 0. 0. 0. 0. 0. 0. 0. 0. 0. 0. 0. 0.
      2.56410260e-002 1.28205135e-001 0. 0. 0. 1.02564104e-001 0. 0. 0.
      0. 0. 0. 0. 0. 0. 0. 0. 0. 0. 0. 0. 0. 0. 0. 0. 0. 0. 0. 0. 0.</_>
    <_>
      0. 9.38967150e-003 1.40845068e-002 0. 0. 0. 9.38967150e-003 0. 0.
      1.87793430e-002 1.87793430e-002 0. 0. 2.34741792e-002
      9.38967150e-003 0. 5.16431928e-002 1.87793430e-002 4.69483584e-002
      2.81690136e-002 0. 9.38967150e-003 0. 1.87793430e-002
      1.40845068e-002 0. 0. 1.87793430e-002 0. 9.38967150e-003
      2.81690136e-002 0. 0. 9.38967150e-003 0. 1.87793430e-002
      6.10328652e-002 0. 2.34741792e-002 0. 1.40845068e-002
      9.38967150e-003 2.34741792e-002 0. 0. 0. 0. 0. 0. 0. 0. 0.
      9.38967150e-003 9.38967150e-003 9.38967150e-003 9.38967150e-003 0.
      1.40845068e-002 0. 0. 0. 2.81690136e-002 0. 3.28638516e-002 0. 0.
      1.40845068e-002 0. 0. 0. 1.87793430e-002 4.69483584e-002 0. 0. 0.
      2.34741792e-002 4.22535203e-002 1.40845068e-002 0. 0.
      2.34741792e-002 2.34741792e-002 0. 0. 0. 0. 0. 0. 0.
      1.87793430e-002 9.38967150e-003 9.38967150e-003 1.87793430e-002 0.
      0. 0. 0. 0. 0. 0.</_>
    <_>
      3.58974375e-002 2.82051284e-002 7.69230817e-003 0. 5.12820529e-003
      5.12820529e-003 1.02564106e-002 0. 1.53846163e-002 7.69230817e-003
      0. 1.53846163e-002 2.30769236e-002 0. 0. 0. 0. 5.12820529e-003
      5.12820529e-003 0. 0. 5.12820529e-003 0. 7.69230817e-003
      1.53846163e-002 5.12820529e-003 0. 0. 0. 0. 4.61538471e-002
      1.28205130e-002 7.69230817e-003 5.12820529e-003 0. 1.02564106e-002
      6.15384653e-002 1.28205130e-002 5.12820529e-003 5.12820529e-003
      7.69230817e-003 0. 1.28205130e-002 1.53846163e-002 2.05128212e-002
      5.12820529e-003 5.12820529e-003 7.69230817e-003 1.02564106e-002 0.
      1.02564106e-002 1.28205130e-002 2.30769236e-002 1.28205130e-002 0.
      0. 0. 1.79487187e-002 5.12820529e-003 0. 1.79487187e-002
      1.28205130e-002 0. 2.56410260e-002 0. 0. 7.69230798e-002 0.
      1.53846163e-002 0. 1.02564106e-002 6.92307726e-002 0.
      5.12820529e-003 0. 4.61538471e-002 1.02564106e-002 1.53846163e-002
      0. 0. 7.69230817e-003 0. 1.02564106e-002 0. 0. 0. 3.84615399e-002
      0. 1.02564106e-002 0. 0. 0. 2.30769236e-002 0. 0. 5.12820529e-003
      1.79487187e-002 7.69230817e-003 0. 5.12820529e-003</_>
    <_>
      8.77192989e-003 0. 3.50877196e-002 0. 0. 2.63157897e-002 0.
      8.77192989e-003 0. 2.63157897e-002 1.75438598e-002 1.75438598e-002
      3.50877196e-002 8.77192989e-003 8.77192989e-003 0. 6.14035092e-002
      0. 0. 0. 0. 8.77192989e-003 0. 0. 0. 0. 0. 0. 0. 0. 0.
      8.77192989e-003 0. 7.01754391e-002 0. 0. 1.75438598e-002
      1.75438598e-002 0. 0. 1.75438598e-002 0. 1.75438598e-002
      1.75438598e-002 8.77192989e-003 0. 8.77192989e-003 2.63157897e-002
      0. 0. 1.75438598e-002 0. 0. 2.63157897e-002 3.50877196e-002 0.
      8.77192989e-003 1.75438598e-002 2.63157897e-002 0. 8.77192989e-003
      0. 0. 5.26315793e-002 0. 0. 8.77192989e-003 0. 0. 1.75438598e-002
      0. 1.75438598e-002 2.63157897e-002 8.77192989e-003 0.
      9.64912325e-002 1.75438598e-002 0. 0. 0. 1.75438598e-002 0. 0.
      1.75438598e-002 8.77192989e-003 0. 0. 8.77192989e-003 0. 0.
      1.75438598e-002 0. 0. 0. 0. 1.75438598e-002 2.63157897e-002 0. 0.
      2.63157897e-002</_>
    <_>
      0. 0. 0. 0. 0. 0. 0. 3.70370373e-002 0. 0. 0. 0. 0.
      3.70370373e-002 0. 0. 1.11111112e-001 0. 0. 0. 0. 0. 0. 0. 0. 0.
      2.22222224e-001 0. 0. 0. 0. 0. 0. 0. 0. 0. 0. 0. 0.
      7.40740746e-002 0. 0. 0. 0. 0. 0. 0. 0. 0. 0. 0. 0. 0. 0. 0. 0. 0.
      0. 0. 0. 0. 0. 0. 0. 0. 0. 0. 0. 0. 3.70370373e-002
      7.40740746e-002 0. 0. 0. 0. 0. 0. 3.70370373e-002 0. 0. 0. 0.
      1.11111112e-001 7.40740746e-002 0. 0. 0. 0. 7.40740746e-002 0. 0.
      0. 0. 0. 0. 0. 0. 1.11111112e-001 0. 0.</_>
    <_>
      0. 0. 0. 0. 4.16666679e-002 0. 0. 0. 0. 4.16666679e-002
      4.16666679e-002 0. 0. 0. 0. 0. 0. 0. 0. 0. 4.16666679e-002 0.
      1.25000000e-001 0. 0. 0. 0. 8.33333358e-002 0. 0. 0. 0. 0. 0. 0.
      8.33333358e-002 0. 0. 0. 0. 0. 0. 0. 0. 0. 0. 0. 0. 0. 0. 0. 0.
      1.66666672e-001 0. 0. 0. 4.16666679e-002 0. 0. 4.16666679e-002 0.
      0. 0. 0. 0. 0. 0. 1.25000000e-001 0. 0. 0. 0. 0. 0. 0. 0. 0.
      8.33333358e-002 0. 0. 0. 0. 0. 0. 0. 0. 0. 0. 0. 0. 0. 0. 0. 0. 0.
      0. 0. 4.16666679e-002 4.16666679e-002 0.</_>
    <_>
      0. 0. 0. 0. 0. 0. 0. 0. 0. 0. 0. 0. 0. 0. 0. 0. 1.42857149e-001 0.
      0. 0. 0. 0. 0. 0. 0. 0. 0. 0. 0. 0. 0. 0. 0. 0. 0. 1.42857149e-001
      0. 0. 0. 0. 7.14285746e-002 0. 0. 0. 0. 0. 0. 0. 0. 0. 0. 0. 0.
      1.42857149e-001 7.14285746e-002 0. 0. 0. 0. 0. 0. 0. 0. 0.
      7.14285746e-002 0. 0. 0. 0. 0. 0. 0. 0. 0. 0. 0. 0.
      7.14285746e-002 0. 0. 7.14285746e-002 0. 0. 1.42857149e-001 0. 0.
      0. 0. 0. 0. 0. 0. 0. 0. 0. 7.14285746e-002 0. 0. 0. 0.</_>
    <_>
      0. 0. 0. 0. 0. 0. 0. 0. 0. 0. 0. 0. 3.84615399e-002
      3.84615399e-002 0. 0. 7.69230798e-002 0. 0. 3.84615399e-002 0.
      3.84615399e-002 0. 0. 0. 0. 0. 0. 0. 0. 7.69230798e-002 0. 0. 0.
      0. 7.69230798e-002 7.69230798e-002 0. 3.84615399e-002
      7.69230798e-002 0. 0. 0. 3.84615399e-002 0. 0. 0. 0. 0. 0. 0. 0.
      0. 0. 3.84615399e-002 0. 0. 0. 0. 0. 0. 0. 0. 0. 0. 0. 0. 0. 0. 0.
      0. 1.15384623e-001 0. 0. 0. 7.69230798e-002 0. 3.84615399e-002 0.
      7.69230798e-002 0. 0. 0. 0. 0. 0. 0. 0. 0. 0. 0. 0. 0. 0. 0. 0.
      3.84615399e-002 0. 0. 0.</_>
    <_>
      3.24909762e-002 7.22021656e-003 0. 1.44404331e-002 2.16606501e-002
      1.08303251e-002 0. 0. 3.61010842e-002 0. 0. 3.97111923e-002 0.
      1.44404331e-002 1.80505421e-002 0. 7.22021656e-003 0. 0. 0.
      5.05415164e-002 0. 0. 0. 7.22021656e-003 7.22021656e-003
      1.08303251e-002 7.22021656e-003 0. 0. 1.44404331e-002 0. 0.
      7.22021656e-003 1.44404331e-002 0. 0. 1.80505421e-002
      1.44404331e-002 0. 1.44404331e-002 7.22021656e-003 1.44404331e-002
      0. 1.44404331e-002 1.80505421e-002 0. 0. 0. 0. 0. 0. 0.
      7.22021656e-003 0. 0. 1.44404331e-002 0. 2.16606501e-002
      3.97111923e-002 1.44404331e-002 1.80505421e-002 0. 0.
      2.88808662e-002 0. 0. 1.44404331e-002 1.80505421e-002
      7.22021656e-003 0. 1.44404331e-002 3.24909762e-002 3.24909762e-002
      5.05415164e-002 0. 0. 1.80505421e-002 1.44404331e-002
      2.52707582e-002 2.52707582e-002 0. 1.44404331e-002 0. 0.
      2.52707582e-002 0. 1.08303251e-002 4.33213003e-002 1.08303251e-002
      1.44404331e-002 7.22021656e-003 0. 0. 0. 7.22021656e-003 0. 0. 0.
      0.</_>
    <_>
      0. 0. 0. 5.88235334e-002 0. 0. 0. 3.92156877e-002 0. 0. 0. 0. 0.
      0. 1.96078438e-002 0. 0. 0. 0. 0. 0. 0. 0. 0. 3.92156877e-002 0.
      0. 3.92156877e-002 0. 0. 0. 0. 0. 0. 0. 0. 0. 0. 3.92156877e-002
      0. 0. 3.92156877e-002 0. 0. 5.88235334e-002 0. 0. 0. 0. 0. 0. 0.
      0. 0. 7.84313753e-002 0. 3.92156877e-002 3.92156877e-002 0. 0. 0.
      0. 0. 0. 0. 0. 0. 0. 3.92156877e-002 0. 0. 0. 0. 0. 0. 0. 0. 0.
      5.88235334e-002 1.17647067e-001 1.17647067e-001 3.92156877e-002 0.
      0. 0. 0. 0. 1.17647067e-001 0. 1.96078438e-002 0. 0. 0. 0. 0. 0.
      0. 0. 0. 0.</_>
    <_>
      1.25000000e-001 0. 0. 0. 0. 0. 0. 0. 0. 0. 0. 0. 0. 0. 0.
      2.50000000e-001 0. 0. 0. 0. 0. 0. 0. 0. 0. 0. 0. 0. 0. 0. 0. 0. 0.
      0. 0. 0. 0. 0. 2.50000000e-001 0. 0. 0. 0. 0. 0. 0. 0. 0. 0. 0. 0.
      0. 0. 0. 0. 0. 0. 0. 0. 0. 0. 0. 0. 0. 0. 0. 0. 0. 0. 0. 0. 0.
      2.50000000e-001 1.25000000e-001 0. 0. 0. 0. 0. 0. 0. 0. 0. 0. 0.
      0. 0. 0. 0. 0. 0. 0. 0. 0. 0. 0. 0. 0. 0. 0.</_>
    <_>
      0. 1.63265299e-002 0. 8.16326495e-003 2.44897939e-002 0. 0.
      8.16326495e-003 0. 1.63265299e-002 0. 8.16326495e-003 0. 0.
      2.04081628e-002 8.16326495e-003 0. 0. 0. 0. 2.85714269e-002
      2.04081628e-002 0. 8.16326495e-003 8.16326495e-003 0. 0.
      2.04081628e-002 8.16326495e-003 1.63265299e-002 0. 0.
      8.16326495e-003 0. 1.63265299e-002 0. 0. 3.26530598e-002
      1.22448970e-002 4.48979586e-002 0. 1.22448970e-002 1.63265299e-002
      8.16326495e-003 0. 0. 0. 1.22448970e-002 8.16326495e-003 0. 0. 0.
      3.67346928e-002 0. 1.63265299e-002 1.63265299e-002 8.16326495e-003
      0. 3.26530598e-002 3.67346928e-002 3.26530598e-002 1.22448970e-002
      0. 0. 5.30612208e-002 0. 0. 8.16326495e-003 0. 0. 0. 0.
      3.26530598e-002 2.04081628e-002 0. 0. 0. 0. 8.16326495e-003 0.
      8.16326495e-003 8.16326495e-003 8.16326495e-003 0. 0.
      1.22448970e-002 0. 1.63265299e-002 0. 8.16326495e-003
      1.63265299e-002 0. 9.79591757e-002 2.44897939e-002 0.
      3.26530598e-002 0. 0. 8.16326495e-003 8.16326495e-003</_>
    <_>
      0. 0. 3.12500000e-002 0. 6.25000000e-002 0. 0. 3.12500000e-002 0.
      0. 0. 3.12500000e-002 0. 1.56250000e-002 1.56250000e-002
      3.12500000e-002 0. 0. 3.12500000e-002 0. 3.12500000e-002 0. 0. 0.
      0. 4.68750000e-002 0. 0. 0. 0. 0. 0. 0. 1.56250000e-002 0. 0. 0.
      0. 3.12500000e-002 0. 0. 6.25000000e-002 0. 0. 0. 3.12500000e-002
      0. 0. 0. 0. 0. 0. 0. 0. 0. 1.56250000e-002 0. 0. 9.37500000e-002
      0. 0. 0. 0. 0. 4.68750000e-002 3.12500000e-002 0. 0. 0. 0. 0. 0.
      1.71875000e-001 0. 3.12500000e-002 0. 0. 0. 0. 0. 0. 0.
      6.25000000e-002 0. 0. 0. 0. 0. 0. 0. 0. 0. 0. 0. 0. 0.
      1.56250000e-002 0. 0. 6.25000000e-002</_>
    <_>
      2.48226933e-002 1.41843967e-002 7.09219836e-003 0. 0.
      7.09219836e-003 0. 0. 3.90070900e-002 0. 0. 2.12765951e-002
      7.09219836e-003 0. 1.06382975e-002 0. 1.41843967e-002
      1.41843967e-002 1.06382975e-002 0. 0. 1.06382975e-002 0. 0. 0. 0.
      1.77304968e-002 0. 0. 0. 0. 0. 6.38297871e-002 7.09219836e-003
      7.09219836e-003 3.54609936e-002 7.09219836e-003 7.09219836e-003
      2.12765951e-002 0. 0. 3.19148935e-002 3.54609936e-002 0. 0.
      7.09219836e-003 0. 1.41843967e-002 2.12765951e-002 0.
      2.48226933e-002 0. 1.06382975e-002 0. 1.06382975e-002
      2.83687934e-002 3.19148935e-002 0. 2.83687934e-002 3.54609936e-002
      0. 0. 7.09219836e-003 0. 2.48226933e-002 0. 0. 0. 0.
      2.12765951e-002 0. 1.41843967e-002 2.12765951e-002 1.41843967e-002
      3.54609936e-002 0. 0. 0. 7.09219836e-003 7.09219836e-003 0. 0.
      2.48226933e-002 0. 0. 2.83687934e-002 1.41843967e-002 0. 0.
      2.48226933e-002 1.41843967e-002 0. 2.12765951e-002 0. 0.
      3.19148935e-002 1.77304968e-002 0. 0. 7.09219836e-003</_>
    <_>
      0. 0. 3.38983051e-002 0. 0. 0. 0. 1.69491526e-002 1.69491526e-002
      3.38983051e-002 0. 0. 0. 0. 0. 5.08474559e-002 0. 0. 0. 0. 0. 0.
      0. 0. 0. 0. 0. 0. 0. 0. 1.69491526e-002 0. 0. 3.38983051e-002 0.
      0. 0. 0. 0. 0. 0. 3.38983051e-002 0. 0. 0. 0. 0. 0. 0. 0. 0. 0. 0.
      0. 0. 0. 0. 0. 1.18644066e-001 0. 0. 0. 0. 0. 6.77966103e-002 0.
      0. 0. 0. 0. 0. 0. 1.01694912e-001 3.38983051e-002 0. 0. 0. 0. 0.
      0. 0. 1.69491526e-002 0. 0. 0. 0. 0. 0. 0. 1.18644066e-001 0. 0.
      0. 1.69491526e-002 0. 2.54237294e-001 0. 0. 3.38983051e-002 0.</_>
    <_>
      9.52380989e-003 0. 9.52380989e-003 3.33333351e-002 9.52380989e-003
      9.52380989e-003 0. 0. 1.90476198e-002 9.52380989e-003
      2.38095243e-002 3.80952395e-002 0. 0. 9.52380989e-003 0. 0.
      9.52380989e-003 1.42857153e-002 0. 2.85714306e-002 9.52380989e-003
      0. 2.38095243e-002 0. 0. 0. 3.80952395e-002 0. 0. 0. 0. 0.
      2.85714306e-002 1.42857153e-002 2.85714306e-002 0. 9.52380989e-003
      2.38095243e-002 4.28571440e-002 9.52380989e-003 0. 3.80952395e-002
      0. 3.80952395e-002 0. 0. 0. 0. 1.42857153e-002 0. 0.
      1.42857153e-002 0. 1.90476198e-002 2.38095243e-002 0.
      1.42857153e-002 0. 1.90476198e-002 0. 9.52380989e-003
      9.52380989e-003 0. 4.76190485e-002 0. 1.90476198e-002 0.
      2.38095243e-002 0. 0. 0. 0. 1.90476198e-002 0. 0. 0.
      2.38095243e-002 9.52380989e-003 9.52380989e-003 0. 0.
      1.90476198e-002 0. 0. 9.52380989e-003 1.42857153e-002
      2.85714306e-002 0. 0. 9.52380989e-003 0. 3.33333351e-002
      2.85714306e-002 0. 0. 0. 0. 0. 0.</_>
    <_>
      0. 1.42857149e-001 0. 0. 0. 0. 0. 0. 0. 7.14285746e-002 0. 0. 0.
      0. 0. 0. 0. 0. 0. 0. 0. 0. 0. 0. 0. 0. 0. 0. 0. 2.14285731e-001 0.
      0. 0. 0. 0. 0. 0. 0. 0. 0. 0. 0. 0. 0. 0. 7.14285746e-002 0. 0. 0.
      0. 0. 0. 0. 0. 0. 0. 0. 0. 0. 0. 0. 0. 0. 0. 0. 0. 0. 0.
      1.42857149e-001 0. 0. 0. 0. 0. 0. 0. 0. 1.42857149e-001 0. 0. 0.
      0. 0. 0. 0. 0. 0. 0. 0. 0. 0. 0. 0. 0. 7.14285746e-002 0. 0. 0. 0.
      1.42857149e-001</_>
    <_>
      0. 0. 0. 0. 0. 0. 0. 0. 0. 0. 0. 0. 0. 0. 0. 0. 0. 0. 0. 0. 0. 0.
      0. 0. 0. 0. 0. 0. 0. 0. 0. 5.00000000e-001 0. 0. 0. 0. 0. 0. 0. 0.
      0. 0. 0. 0. 0. 0. 0. 0. 0. 0. 0. 0. 0. 0. 0. 0. 0. 0. 0. 0. 0. 0.
      0. 0. 0. 0. 0. 0. 0. 0. 0. 0. 0. 0. 0. 0. 0. 0. 0. 0. 0. 0. 0. 0.
      0. 0. 5.00000000e-001 0. 0. 0. 0. 0. 0. 0. 0. 0. 0. 0. 0. 0.</_>
    <_>
      0. 0. 3.12500000e-002 1.04166670e-002 0. 1.04166670e-002
      1.04166670e-002 6.25000000e-002 0. 0. 0. 0. 1.04166670e-002 0. 0.
      5.20833358e-002 1.04166670e-002 1.04166670e-002 0. 1.04166670e-002
      0. 0. 5.20833358e-002 1.04166670e-002 1.04166670e-002
      1.04166670e-002 0. 0. 0. 3.12500000e-002 2.08333340e-002 0. 0.
      1.04166670e-002 0. 1.04166670e-002 0. 0. 0. 0. 0. 0. 0.
      1.04166670e-002 0. 1.04166670e-002 0. 0. 3.12500000e-002
      6.25000000e-002 0. 2.08333340e-002 2.08333340e-002 0. 0. 0. 0. 0.
      6.25000000e-002 0. 1.04166670e-002 0. 0. 0. 0. 1.04166670e-002
      1.04166670e-002 0. 0. 0. 0. 4.16666679e-002 1.04166670e-002
      6.25000000e-002 2.08333340e-002 0. 1.04166670e-002 0. 0.
      1.04166670e-002 2.08333340e-002 0. 1.04166670e-002 0. 0. 0.
      2.08333340e-002 0. 1.04166670e-002 0. 2.08333340e-002
      1.04166670e-002 0. 1.04166670e-002 4.16666679e-002 2.08333340e-002
      0. 1.04166670e-002 0. 4.16666679e-002</_>
    <_>
      0. 0. 0. 0. 0. 0. 2.50000000e-001 0. 0. 0. 8.33333358e-002 0. 0.
      4.16666679e-002 0. 0. 0. 0. 0. 0. 0. 0. 0. 0. 0. 0. 0. 0. 0. 0.
      1.66666672e-001 0. 0. 0. 0. 0. 0. 0. 0. 0. 0. 8.33333358e-002 0.
      0. 0. 0. 0. 0. 8.33333358e-002 0. 0. 1.66666672e-001 0. 0. 0. 0.
      0. 0. 0. 0. 0. 0. 0. 0. 0. 0. 0. 0. 0. 0. 0. 0. 0. 0. 0. 0. 0. 0.
      0. 0. 0. 0. 0. 0. 4.16666679e-002 0. 0. 4.16666679e-002 0. 0. 0.
      0. 0. 0. 4.16666679e-002 0. 0. 0. 0. 0.</_>
    <_>
      5.02512557e-003 2.01005023e-002 0. 1.00502511e-002 1.50753763e-002
      1.00502511e-002 2.01005023e-002 3.01507525e-002 0. 1.50753763e-002
      2.01005023e-002 0. 0. 1.50753763e-002 2.51256283e-002
      5.02512557e-003 0. 0. 1.00502511e-002 0. 0. 7.03517571e-002
      4.02010046e-002 0. 1.00502511e-002 1.50753763e-002 1.00502511e-002
      0. 0. 3.51758786e-002 1.00502511e-002 5.02512557e-003 0. 0. 0.
      1.00502511e-002 0. 5.02512557e-003 0. 0. 0. 1.50753763e-002 0.
      5.02512557e-003 0. 0. 0. 0. 8.04020092e-002 8.04020092e-002
      1.00502511e-002 1.50753763e-002 0. 0. 1.50753763e-002 0.
      2.01005023e-002 0. 1.50753763e-002 0. 5.02512557e-003 0. 0. 0. 0.
      1.50753763e-002 1.00502511e-002 2.01005023e-002 5.02512557e-003
      1.00502511e-002 1.00502511e-002 3.51758786e-002 0. 5.02512557e-003
      0. 0. 5.02512557e-003 2.51256283e-002 0. 0. 0. 5.02512557e-003 0.
      0. 1.00502511e-002 0. 5.02512557e-003 1.00502511e-002
      2.51256283e-002 1.50753763e-002 1.00502511e-002 0. 0. 0.
      5.02512567e-002 1.50753763e-002 0. 0. 2.51256283e-002
      1.50753763e-002</_>
    <_>
      1.11111112e-001 0. 0. 1.85185187e-002 5.55555560e-002 0. 0. 0. 0.
      0. 1.85185187e-002 0. 0. 3.70370373e-002 0. 0. 0. 0.
      1.29629627e-001 0. 0. 0. 0. 0. 0. 0. 0. 0. 0. 0. 0. 0. 0. 0. 0. 0.
      1.85185187e-002 0. 0. 0. 3.70370373e-002 0. 0. 0. 0. 0. 0.
      3.70370373e-002 0. 0. 0. 0. 0. 0. 0. 0. 0. 0. 0. 1.85185187e-002
      0. 0. 0. 0. 0. 1.85185187e-002 0. 0. 1.85185187e-002
      1.29629627e-001 0. 0. 0. 0. 0. 0. 0. 0. 0. 0. 0. 0. 0. 0. 0.
      1.85185187e-002 0. 3.70370373e-002 0. 1.85185194e-001
      9.25925970e-002 0. 0. 0. 0. 0. 0. 0. 1.85185187e-002 0.</_>
    <_>
      0. 0. 0. 0. 0. 0. 0. 0. 0. 0. 0. 0. 0. 0. 0. 0. 0. 0. 0. 0. 0. 0.
      0. 0. 0. 0. 0. 0. 0. 0. 0. 0. 0. 0. 0. 0. 0. 0. 0. 0. 0. 0. 0. 0.
      0. 0. 0. 0. 0. 0. 0. 0. 0. 0. 0. 0. 0. 0. 0. 0. 0. 0. 0. 0. 0. 0.
      0. 0. 0. 0. 0. 5.00000000e-001 0. 5.00000000e-001 0. 0. 0. 0. 0.
      0. 0. 0. 0. 0. 0. 0. 0. 0. 0. 0. 0. 0. 0. 0. 0. 0. 0. 0. 0. 0.</_>
    <_>
      9.09090936e-002 0. 0. 0. 0. 3.03030312e-002 0. 0. 0.
      6.06060624e-002 1.21212125e-001 0. 0. 3.03030312e-002 0. 0. 0.
      3.03030312e-002 0. 0. 0. 0. 0. 0. 0. 0. 0. 0. 0. 0. 0. 0. 0. 0.
      1.21212125e-001 0. 0. 0. 0. 0. 0. 0. 0. 0. 0. 0. 0. 0. 0.
      3.03030312e-002 0. 0. 0. 0. 0. 0. 0. 1.21212125e-001 0. 0.
      1.21212125e-001 0. 0. 0. 0. 0. 0. 0. 1.21212125e-001 0. 0. 0.
      6.06060624e-002 0. 0. 0. 0. 0. 0. 0. 0. 0. 0. 0. 0.
      3.03030312e-002 0. 0. 0. 0. 0. 0. 0. 0. 0. 0. 3.03030312e-002 0.
      0. 0.</_>
    <_>
      0. 0. 4.58715558e-002 0. 4.12844010e-002 0. 0. 0. 5.04587144e-002
      0. 2.29357779e-002 0. 0. 0. 8.25688019e-002 9.17431153e-003 0. 0.
      0. 0. 0. 0. 0. 0. 0. 0. 0. 0. 0. 0. 0. 0. 0. 0. 0. 0. 0. 0. 0. 0.
      0. 0. 0. 1.00917429e-001 0. 0. 0. 0. 4.58715558e-002 0. 0.
      1.92660540e-001 0. 0. 8.71559605e-002 0. 0. 0. 0. 0. 0. 0. 0. 0.
      0. 0. 0. 0. 0. 0. 0. 0. 0. 0. 0. 0. 0. 3.66972461e-002 0. 0. 0.
      1.37614673e-002 0. 5.04587144e-002 0. 0. 3.66972461e-002
      4.58715558e-002 0. 1.05504580e-001 0. 0. 0. 0. 0. 0. 0. 0. 0. 0.</_>
    <_>
      0. 0. 2.15053763e-002 0. 1.61290318e-002 0. 1.07526882e-002 0.
      1.61290318e-002 0. 0. 0. 0. 2.15053763e-002 2.68817209e-002
      3.76344100e-002 5.37634408e-003 0. 0. 5.37634408e-003 0. 0. 0.
      5.37634408e-003 5.37634417e-002 0. 1.07526882e-002 0.
      5.37634408e-003 0. 4.30107526e-002 0. 2.15053763e-002
      3.22580636e-002 0. 0. 4.83870953e-002 0. 0. 0. 0. 0.
      4.83870953e-002 5.37634417e-002 0. 0. 1.61290318e-002
      3.76344100e-002 4.30107526e-002 0. 5.37634408e-003 8.60215053e-002
      0. 3.22580636e-002 5.37634408e-003 4.30107526e-002 0.
      2.15053763e-002 1.07526882e-002 0. 0. 0. 0. 0. 0. 0. 0. 0. 0. 0.
      0. 0. 0. 5.37634408e-003 0. 0. 3.76344100e-002 2.15053763e-002 0.
      0. 0. 5.37634408e-003 1.61290318e-002 5.37634408e-003
      3.22580636e-002 5.37634408e-003 5.37634408e-003 3.76344100e-002 0.
      0. 1.61290318e-002 0. 0. 0. 0. 0. 2.68817209e-002 0. 0. 0.</_>
    <_>
      1.36986300e-002 1.02739725e-002 0. 0. 0. 0. 2.73972601e-002
      1.71232875e-002 0. 1.71232875e-002 1.02739725e-002 2.73972601e-002
      0. 1.02739725e-002 0. 0. 6.84931502e-003 0. 2.73972601e-002 0.
      3.08219176e-002 1.02739725e-002 2.73972601e-002 1.02739725e-002 0.
      0. 0. 2.39726026e-002 1.02739725e-002 0. 2.05479451e-002
      1.02739725e-002 0. 0. 1.71232875e-002 1.02739725e-002
      1.02739725e-002 0. 1.02739725e-002 0. 0. 1.02739725e-002
      1.02739725e-002 0. 0. 0. 0. 0. 2.39726026e-002 0. 0.
      3.08219176e-002 0. 2.39726026e-002 0. 2.39726026e-002
      1.02739725e-002 0. 0. 3.08219176e-002 0. 1.36986300e-002 0.
      1.02739725e-002 0. 1.36986300e-002 3.08219176e-002 0.
      1.02739725e-002 0. 1.71232875e-002 1.02739725e-002 0.
      1.02739725e-002 1.36986300e-002 1.02739725e-002 5.82191795e-002 0.
      2.39726026e-002 3.42465751e-002 1.02739725e-002 0. 1.02739725e-002
      0. 3.76712307e-002 1.36986300e-002 1.02739725e-002 0.
      1.36986300e-002 2.73972601e-002 1.02739725e-002 0. 0. 0. 0. 0.
      3.42465751e-002 1.36986300e-002 1.36986300e-002 0.</_>
    <_>
      0. 0. 0. 4.34782580e-002 0. 0. 2.60869563e-002 0. 0. 0.
      3.04347817e-002 0. 0. 3.47826071e-002 0. 0. 4.34782580e-002 0. 0.
      1.30434781e-002 0. 2.17391290e-002 0. 0. 0. 1.30434781e-002
      2.17391290e-002 8.69565178e-003 0. 3.04347817e-002 4.78260852e-002
      3.04347817e-002 0. 2.60869563e-002 0. 0. 0. 0. 0. 1.73913036e-002
      0. 0. 2.17391290e-002 4.34782580e-002 0. 4.34782580e-002 0. 0.
      2.60869563e-002 1.30434781e-002 0. 1.73913036e-002 2.60869563e-002
      0. 1.30434781e-002 0. 8.69565178e-003 0. 0. 0. 0. 2.60869563e-002
      8.69565178e-003 0. 0. 8.69565178e-003 8.69565178e-003 0. 0. 0. 0.
      0. 0. 1.30434781e-002 0. 3.47826071e-002 0. 3.47826071e-002 0.
      1.73913036e-002 0. 6.52173907e-002 0. 0. 1.73913036e-002
      8.69565178e-003 0. 0. 0. 2.60869563e-002 0. 0. 0. 2.60869563e-002
      0. 3.04347817e-002 0. 0. 0. 8.69565178e-003</_>
    <_>
      4.66321222e-002 7.77202053e-003 0. 0. 0. 0. 1.55440411e-002 0.
      2.07253881e-002 3.36787552e-002 2.33160611e-002 5.18134702e-003
      2.59067342e-002 0. 7.77202053e-003 0. 5.18134702e-003 0.
      7.77202053e-003 2.07253881e-002 0. 2.07253881e-002 0. 0. 0.
      7.77202053e-003 0. 0. 0. 0. 0. 2.07253881e-002 0. 3.36787552e-002
      1.55440411e-002 1.55440411e-002 0. 0. 0. 1.03626940e-002 0.
      3.62694301e-002 0. 0. 0. 7.77202053e-003 0. 0. 0. 2.59067342e-002
      0. 1.55440411e-002 5.18134702e-003 7.77202053e-003 1.03626940e-002
      0. 0. 5.18134702e-003 0. 2.07253881e-002 0. 1.03626940e-002
      1.03626940e-002 0. 0. 7.77202053e-003 4.92227972e-002 0.
      1.29533671e-002 2.07253881e-002 0. 1.03626940e-002 1.03626940e-002
      4.14507762e-002 0. 2.84974091e-002 0. 4.92227972e-002 0.
      6.73575103e-002 1.03626940e-002 1.55440411e-002 0. 0. 0. 0. 0.
      7.77202053e-003 4.92227972e-002 0. 1.03626940e-002 0.
      1.03626940e-002 2.59067342e-002 1.55440411e-002 0. 1.29533671e-002
      7.77202053e-003 0. 0.</_>
    <_>
      0. 0. 0. 0. 0. 0. 0. 0. 0. 0. 0. 0. 0. 7.99999982e-002 0.
      1.19999997e-001 0. 9.99999978e-003 0. 0. 0. 1.99999996e-002 0. 0.
      0. 1.99999996e-002 0. 0. 0. 0. 0. 0. 0. 9.99999978e-003 0.
      3.99999991e-002 0. 0. 9.99999978e-003 0. 0. 0. 0. 9.99999978e-003
      0. 0. 0. 0. 1.29999995e-001 2.99999993e-002 0. 9.99999940e-002
      1.99999996e-002 0. 0. 0. 0. 0. 9.99999978e-003 9.99999978e-003 0.
      5.99999987e-002 9.99999978e-003 0. 1.09999999e-001 0. 0. 0. 0. 0.
      0. 3.99999991e-002 9.99999978e-003 0. 1.99999996e-002 0. 0. 0. 0.
      5.99999987e-002 0. 0. 0. 0. 0. 0. 0. 0. 0. 3.99999991e-002
      1.99999996e-002 0. 0. 9.99999978e-003 0. 0. 0. 0. 0. 0.</_>
    <_>
      0. 4.16666679e-002 0. 0. 0. 0. 0. 0. 0. 0. 0. 0. 0. 0. 0. 0. 0. 0.
      0. 0. 0. 1.25000000e-001 0. 0. 0. 0. 0. 0. 0. 4.16666679e-002
      1.25000000e-001 0. 1.25000000e-001 0. 0. 4.16666679e-002 0. 0. 0.
      0. 0. 0. 0. 8.33333358e-002 0. 0. 0. 0. 4.16666679e-002 0. 0.
      4.16666679e-002 0. 0. 0. 0. 0. 0. 0. 0. 4.16666679e-002 0. 0.
      4.16666679e-002 0. 0. 8.33333358e-002 0. 0. 0. 0. 4.16666679e-002
      0. 0. 0. 0. 0. 0. 0. 0. 0. 0. 0. 0. 0. 0. 4.16666679e-002 0.
      4.16666679e-002 0. 0. 4.16666679e-002 0. 0. 0. 0. 0. 0. 0. 0.</_>
    <_>
      0. 1.00000001e-001 0. 0. 2.00000003e-001 0. 0. 0. 0. 0. 0. 0. 0.
      0. 0. 0. 0. 0. 0. 0. 0. 0. 1.00000001e-001 0. 1.00000001e-001 0.
      0. 0. 0. 0. 0. 0. 0. 0. 2.00000003e-001 0. 0. 0. 0.
      1.00000001e-001 0. 0. 0. 0. 0. 0. 0. 0. 0. 0. 0. 0. 0. 0. 0. 0. 0.
      0. 0. 1.00000001e-001 0. 0. 0. 0. 1.00000001e-001 0. 0. 0. 0. 0.
      0. 0. 0. 0. 0. 0. 0. 0. 0. 0. 0. 0. 0. 0. 0. 0. 0. 0. 0. 0. 0. 0.
      0. 0. 0. 0. 0. 0. 0. 0.</_>
    <_>
      0. 0. 0. 0. 0. 0. 5.12820520e-002 0. 0. 0. 0. 0. 0. 0. 0.
      1.02564104e-001 0. 0. 0. 0. 0. 2.56410260e-002 2.56410260e-002 0.
      0. 0. 0. 0. 0. 0. 0. 0. 0. 0. 5.12820520e-002 0. 0. 0. 0. 0.
      2.56410260e-002 0. 1.53846160e-001 0. 0. 5.12820520e-002 0. 0. 0.
      0. 0. 0. 0. 0. 0. 0. 0. 0. 0. 5.12820520e-002 2.56410260e-002 0.
      0. 0. 2.56410260e-002 0. 0. 0. 0. 0. 0. 0. 2.56410260e-002
      5.12820520e-002 0. 0. 0. 0. 0. 0. 7.69230798e-002 0.
      2.56410260e-002 0. 0. 0. 0. 0. 1.02564104e-001 0. 0. 0. 0.
      7.69230798e-002 5.12820520e-002 0. 0. 0. 0. 0.</_>
    <_>
      8.33333358e-002 8.33333358e-002 0. 0. 0. 0. 0. 0. 0. 0. 0. 0. 0.
      8.33333358e-002 0. 0. 0. 0. 0. 0. 0. 0. 0. 0. 0. 0. 0. 0. 0. 0. 0.
      0. 0. 8.33333358e-002 4.16666679e-002 4.16666679e-002 0. 0. 0.
      4.16666679e-002 4.16666679e-002 0. 0. 0. 0. 0. 0. 0. 0. 0. 0. 0.
      0. 4.16666679e-002 0. 0. 0. 4.16666679e-002 0. 8.33333358e-002 0.
      0. 0. 0. 0. 0. 0. 4.16666679e-002 0. 0. 8.33333358e-002
      1.25000000e-001 0. 0. 0. 0. 0. 0. 0. 0. 0. 0. 0. 0. 0. 0. 0. 0.
      8.33333358e-002 0. 0. 0. 0. 0. 0. 0. 0. 0. 0. 0.</_>
    <_>
      2.15053763e-002 0. 2.15053763e-002 2.15053763e-002 2.15053763e-002
      0. 1.07526882e-002 2.15053763e-002 0. 5.37634417e-002
      3.22580636e-002 0. 0. 0. 0. 0. 0. 3.22580636e-002 0.
      1.07526882e-002 0. 5.37634417e-002 4.30107526e-002 0. 0.
      1.07526882e-002 0. 0. 0. 0. 1.07526882e-002 0. 0. 0. 0. 0. 0. 0.
      1.07526882e-002 0. 2.15053763e-002 1.07526882e-002 0. 0.
      2.15053763e-002 0. 0. 0. 0. 0. 0. 0. 1.07526882e-002 0. 0. 0. 0.
      3.22580636e-002 0. 4.30107526e-002 4.30107526e-002 0. 0. 0. 0.
      2.15053763e-002 1.07526882e-002 0. 9.67741907e-002 2.15053763e-002
      0. 8.60215053e-002 0. 2.15053763e-002 0. 1.07526882e-002
      1.07526882e-002 2.15053763e-002 0. 0. 1.07526882e-002 0. 0.
      2.15053763e-002 1.07526882e-002 0. 0. 0. 2.15053763e-002 0. 0. 0.
      3.22580636e-002 2.15053763e-002 0. 2.15053763e-002 0. 0. 0. 0.</_>
    <_>
      0. 0. 0. 0. 7.31707290e-002 0. 0. 4.06504050e-002 4.06504050e-002
      0. 5.69105670e-002 0. 1.54471546e-001 0. 0. 1.62601620e-002
      2.43902430e-002 0. 0. 0. 8.13008100e-003 0. 4.06504050e-002
      6.50406480e-002 0. 0. 4.06504050e-002 0. 0. 1.62601620e-002
      1.62601620e-002 0. 2.43902430e-002 0. 0. 0. 4.87804860e-002
      2.43902430e-002 0. 0. 0. 8.13008100e-003 0. 0. 3.25203240e-002 0.
      0. 0. 8.13008100e-003 1.62601620e-002 1.62601620e-002 0. 0. 0.
      2.43902430e-002 8.13008100e-003 3.25203240e-002 0. 0. 0. 0. 0. 0.
      0. 0. 0. 0. 5.69105670e-002 0. 2.43902430e-002 0. 0. 0. 0. 0. 0.
      4.87804860e-002 0. 0. 0. 0. 0. 0. 1.62601620e-002 0. 0. 0. 0. 0.
      0. 0. 0. 0. 1.62601620e-002 0. 0. 0. 0. 0. 0.</_>
    <_>
      1.19047621e-002 1.19047621e-002 0. 2.38095243e-002 0.
      1.19047621e-002 0. 2.38095243e-002 0. 0. 0. 0. 0. 0. 0. 0. 0.
      2.38095243e-002 0. 0. 0. 9.52380970e-002 1.19047621e-002 0. 0. 0.
      1.19047621e-002 2.38095243e-002 1.19047621e-002 1.19047621e-002
      1.19047621e-002 0. 1.19047621e-002 1.19047621e-002 0. 0. 0. 0.
      2.38095243e-002 0. 2.38095243e-002 0. 5.95238097e-002 0. 0.
      1.19047621e-002 0. 2.38095243e-002 4.76190485e-002 1.19047621e-002
      0. 0. 2.38095243e-002 0. 0. 0. 1.19047621e-002 0. 2.38095243e-002
      0. 4.76190485e-002 0. 0. 0. 2.38095243e-002 0. 0. 4.76190485e-002
      0. 0. 0. 7.14285746e-002 3.57142873e-002 7.14285746e-002 0. 0. 0.
      1.19047621e-002 0. 0. 1.19047621e-002 3.57142873e-002 0. 0. 0. 0.
      0. 0. 1.19047621e-002 1.19047621e-002 0. 1.19047621e-002 0. 0. 0.
      0. 0. 0. 0. 3.57142873e-002</_>
    <_>
      3.12500000e-002 7.29166716e-002 0. 0. 0. 8.33333358e-002 0.
      1.04166672e-001 0. 0. 0. 0. 0. 0. 0. 0. 5.20833358e-002 0. 0. 0.
      0. 3.12500000e-002 0. 0. 2.08333340e-002 2.08333340e-002 0. 0. 0.
      0. 0. 1.04166672e-001 0. 0. 0. 0. 0. 0. 0. 0. 0. 0.
      2.08333340e-002 2.08333340e-002 7.29166716e-002 0. 3.12500000e-002
      0. 0. 1.04166670e-002 0. 0. 0. 0. 0. 0. 2.08333340e-002 0. 0. 0.
      0. 0. 8.33333358e-002 0. 0. 0. 0. 0. 0. 0. 0. 1.04166670e-002 0.
      3.12500000e-002 0. 0. 0. 5.20833358e-002 0. 0. 0. 0. 0. 0. 0.
      5.20833358e-002 0. 0. 0. 0. 0. 0. 0. 0. 1.04166670e-002 0. 0. 0.
      0. 6.25000000e-002</_>
    <_>
      0. 0. 0. 0. 0. 0. 0. 0. 0. 0. 0. 0. 0. 0. 0. 0. 0. 0. 0. 0. 0. 0.
      0. 0. 0. 0. 0. 0. 0. 0. 0. 0. 0. 1.66666672e-001 0. 0. 0. 0. 0. 0.
      0. 0. 0. 0. 0. 0. 0. 0. 0. 0. 1.66666672e-001 0. 0. 0. 0. 0. 0. 0.
      0. 0. 0. 0. 0. 0. 0. 0. 0. 0. 0. 0. 0. 0. 0. 0. 0. 6.66666687e-001
      0. 0. 0. 0. 0. 0. 0. 0. 0. 0. 0. 0. 0. 0. 0. 0. 0. 0. 0. 0. 0. 0.
      0. 0.</_>
    <_>
      0. 5.88235296e-002 0. 0. 0. 0. 0. 0. 0. 5.88235296e-002 0. 0.
      5.88235296e-002 0. 5.88235296e-002 0. 0. 0. 0. 0. 0. 0.
      5.88235296e-002 0. 0. 5.88235296e-002 0. 0. 0. 0. 0. 0. 0.
      5.88235296e-002 5.88235296e-002 0. 0. 5.88235296e-002
      5.88235296e-002 0. 0. 0. 0. 0. 0. 0. 0. 0. 0. 5.88235296e-002 0.
      0. 0. 0. 0. 0. 0. 0. 0. 0. 0. 0. 5.88235296e-002 5.88235296e-002
      0. 0. 0. 0. 0. 0. 5.88235296e-002 0. 1.17647059e-001 0. 0. 0. 0.
      0. 0. 0. 0. 0. 0. 0. 0. 0. 0. 0. 0. 0. 0. 0. 0. 0. 0. 0. 0. 0.
      5.88235296e-002 0.</_>
    <_>
      0. 2.29357779e-002 0. 1.37614673e-002 0. 1.83486231e-002 0.
      2.29357779e-002 0. 9.17431153e-003 0. 1.83486231e-002
      5.50458692e-002 0. 2.75229346e-002 0. 9.17431153e-003
      1.83486231e-002 2.29357779e-002 0. 9.17431153e-003 0.
      9.17431153e-003 0. 0. 9.17431153e-003 0. 0. 0. 0. 1.83486231e-002
      2.29357779e-002 9.17431153e-003 5.50458692e-002 9.17431153e-003
      9.17431153e-003 1.83486231e-002 2.29357779e-002 0. 0. 0.
      3.66972461e-002 2.75229346e-002 3.21100913e-002 0. 0. 0. 0. 0. 0.
      9.17431153e-003 9.17431153e-003 0. 9.17431153e-003 0. 0.
      1.37614673e-002 9.17431153e-003 0. 1.83486231e-002 9.17431153e-003
      0. 3.66972461e-002 0. 1.83486231e-002 0. 1.37614673e-002
      1.37614673e-002 1.83486231e-002 0. 0. 2.75229346e-002 0. 0.
      5.96330240e-002 2.75229346e-002 9.17431153e-003 0. 0. 0. 0.
      1.37614673e-002 0. 0. 0. 0. 0. 2.29357779e-002 9.17431153e-003 0.
      0. 9.17431153e-003 0. 1.83486231e-002 9.17431153e-003
      2.29357779e-002 9.17431153e-003 0. 0. 0.</_>
    <_>
      9.75609757e-003 0. 3.90243903e-002 9.75609757e-003 0.
      9.75609757e-003 0. 1.46341464e-002 0. 9.75609757e-003 0. 0. 0.
      9.75609757e-003 0. 0. 3.41463424e-002 0. 0. 3.41463424e-002
      3.41463424e-002 0. 0. 0. 0. 0. 0. 1.95121951e-002 0.
      3.41463424e-002 0. 1.95121951e-002 6.34146333e-002 0.
      3.41463424e-002 0. 1.95121951e-002 0. 0. 0. 0. 6.82926849e-002
      5.85365854e-002 3.41463424e-002 0. 0. 0. 0. 0. 0. 0.
      2.43902430e-002 0. 0. 0. 0. 9.75609757e-003 9.75609757e-003 0. 0.
      0. 0. 0. 0. 2.92682927e-002 9.75609757e-003 0. 2.43902430e-002
      1.46341464e-002 0. 3.41463424e-002 4.39024381e-002 3.41463424e-002
      1.46341464e-002 0. 0. 9.75609757e-003 9.75609757e-003 0.
      9.75609757e-003 0. 0. 0. 9.75609757e-003 1.95121951e-002 0.
      3.41463424e-002 0. 0. 0. 0. 0. 0. 0. 0. 0. 0. 0. 3.41463424e-002
      4.87804860e-002</_>
    <_>
      0. 0. 0. 0. 0. 0. 1.53846160e-001 0. 0. 0. 0. 0. 0. 0. 0. 0. 0. 0.
      0. 0. 0. 0. 0. 0. 0. 0. 0. 7.69230798e-002 0. 0. 0.
      7.69230798e-002 0. 0. 0. 0. 0. 0. 0. 0. 0. 0. 0. 0. 0. 0. 0. 0.
      1.53846160e-001 0. 0. 1.53846160e-001 0. 0. 0. 0. 0. 0. 0. 0. 0.
      0. 0. 1.53846160e-001 0. 0. 0. 0. 0. 0. 0. 0. 0. 0. 0. 0. 0. 0. 0.
      0. 0. 0. 0. 0. 0. 0. 1.53846160e-001 0. 0. 0. 0. 0. 0. 0. 0. 0. 0.
      0. 0. 7.69230798e-002</_>
    <_>
      0. 0. 0. 0. 0. 0. 1.42857144e-002 0. 2.85714287e-002 0.
      1.42857144e-002 1.42857144e-002 0. 0. 0. 2.85714287e-002 0. 0. 0.
      2.85714287e-002 4.28571440e-002 1.42857144e-002 0. 4.28571440e-002
      0. 0. 1.42857144e-002 2.85714287e-002 0. 0. 1.42857144e-002
      2.85714287e-002 1.42857144e-002 0. 1.00000001e-001 0. 0.
      1.42857144e-002 0. 0. 0. 4.28571440e-002 1.42857144e-002 0. 0. 0.
      0. 0. 0. 1.42857144e-002 0. 0. 0. 0. 0. 0. 1.42857144e-002
      2.85714287e-002 0. 0. 0. 0. 0. 2.85714287e-002 0. 0. 0.
      1.42857144e-002 4.28571440e-002 1.42857144e-002 0. 0.
      2.85714287e-002 0. 0. 0. 8.57142881e-002 0. 0. 0. 0. 0.
      7.14285746e-002 0. 2.85714287e-002 0. 0. 0. 0. 4.28571440e-002 0.
      0. 0. 1.42857144e-002 4.28571440e-002 0. 2.85714287e-002 0. 0. 0.</_>
    <_>
      0. 4.34782617e-002 0. 0. 0. 0. 0. 0. 0. 0. 0. 4.34782617e-002 0.
      0. 0. 0. 0. 4.34782617e-002 0. 0. 0. 0. 6.52173907e-002 0. 0. 0.
      0. 0. 0. 0. 2.17391308e-002 0. 0. 0. 1.08695656e-001 0. 0. 0. 0.
      0. 0. 0. 0. 0. 0. 0. 0. 4.34782617e-002 0. 0. 0. 0. 0. 0. 0. 0.
      2.17391308e-002 6.52173907e-002 0. 0. 2.17391308e-002
      6.52173907e-002 2.17391308e-002 0. 0. 0. 0. 0. 2.17391308e-002 0.
      0. 0. 2.17391308e-002 0. 0. 0. 0. 0. 0. 0. 0. 4.34782617e-002 0.
      0. 2.17391308e-002 0. 0. 0. 0. 1.08695656e-001 0. 6.52173907e-002
      0. 0. 2.17391308e-002 0. 8.69565234e-002 2.17391308e-002
      2.17391308e-002 0.</_>
    <_>
      0. 4.45544533e-002 0. 1.48514844e-002 0. 1.48514844e-002 0. 0.
      9.90098994e-003 2.47524753e-002 1.48514844e-002 0. 1.48514844e-002
      0. 9.90098994e-003 0. 9.90098994e-003 2.97029689e-002
      9.90098994e-003 0. 0. 6.43564314e-002 0. 0. 0. 0. 0. 0.
      9.90098994e-003 2.47524753e-002 9.90098994e-003 0. 0. 0.
      2.97029689e-002 1.48514844e-002 9.90098994e-003 0. 1.98019799e-002
      5.44554442e-002 5.44554442e-002 0. 1.98019799e-002 0.
      9.90098994e-003 0. 0. 0. 0. 0. 9.90098994e-003 9.90098994e-003 0.
      0. 0. 0. 9.90098994e-003 2.47524753e-002 0. 0. 0. 0.
      9.90098994e-003 0. 0. 0. 0. 0. 2.97029689e-002 1.48514844e-002
      1.48514844e-002 2.97029689e-002 1.48514844e-002 1.98019799e-002 0.
      0. 1.48514844e-002 1.48514844e-002 9.90098994e-003 1.48514844e-002
      2.97029689e-002 0. 0. 4.95049506e-002 0. 0. 0. 0. 3.46534662e-002
      1.48514844e-002 0. 0. 0. 0. 0. 0. 0. 0. 0. 9.90098994e-003</_>
    <_>
      1.92307699e-002 4.80769239e-002 0. 9.61538497e-003 9.61538497e-003
      0. 0. 9.61538497e-003 0. 9.61538497e-003 2.88461559e-002 0. 0.
      3.84615399e-002 0. 0. 1.92307699e-002 9.61538497e-003
      3.84615399e-002 0. 0. 9.61538497e-003 2.88461559e-002 0. 0. 0. 0.
      9.61538497e-003 0. 9.61538497e-003 0. 0. 0. 0. 2.88461559e-002
      9.61538497e-003 9.61538497e-003 9.61538497e-003 0. 1.92307699e-002
      4.80769239e-002 9.61538497e-003 9.61538497e-003 0. 0.
      9.61538497e-003 0. 0. 0. 0. 0. 0. 9.61538497e-003 0. 0.
      9.61538497e-003 0. 1.34615391e-001 0. 0. 0. 9.61538497e-003 0.
      9.61538497e-003 0. 0. 0. 9.61538497e-003 3.84615399e-002
      3.84615399e-002 2.88461559e-002 9.61538497e-003 0. 0.
      1.92307699e-002 0. 3.84615399e-002 9.61538497e-003 0. 0.
      1.92307699e-002 0. 3.84615399e-002 4.80769239e-002 0. 0. 0. 0.
      9.61538497e-003 9.61538497e-003 0. 2.88461559e-002 0. 0. 0. 0. 0.
      0. 2.88461559e-002 0.</_>
    <_>
      2.32558139e-002 0. 0. 0. 0. 0. 0. 0. 0. 2.32558139e-002
      2.32558139e-002 2.32558139e-002 0. 0. 0. 0. 6.97674453e-002 0.
      2.32558139e-002 0. 0. 0. 0. 0. 0. 0. 0. 0. 0. 0. 0. 0. 0. 0. 0. 0.
      4.65116277e-002 0. 0. 0. 0. 0. 0. 0. 0. 0. 0. 0. 0. 0. 0. 0. 0. 0.
      4.65116277e-002 0. 0. 4.65116277e-002 0. 6.97674453e-002 0. 0. 0.
      0. 0. 0. 0. 0. 0. 1.86046511e-001 0. 0. 0. 0. 0. 4.65116277e-002
      1.62790701e-001 0. 4.65116277e-002 0. 0. 0. 0. 6.97674453e-002 0.
      0. 0. 0. 4.65116277e-002 0. 0. 0. 0. 0. 0. 0. 0. 0.
      4.65116277e-002 0.</_>
    <_>
      3.99999991e-002 0. 0. 0. 0. 0. 0. 0. 0. 7.99999982e-002 0. 0. 0.
      1.19999997e-001 3.99999991e-002 0. 0. 0. 1.59999996e-001 0. 0. 0.
      0. 0. 0. 0. 0. 0. 0. 0. 0. 0. 0. 0. 0. 1.59999996e-001 0. 0. 0. 0.
      0. 3.99999991e-002 0. 0. 0. 0. 0. 0. 0. 0. 0. 0. 0. 0. 0. 0.
      7.99999982e-002 0. 0. 0. 0. 0. 0. 0. 0. 0. 0. 0. 0.
      3.99999991e-002 0. 0. 3.99999991e-002 0. 0. 0. 7.99999982e-002 0.
      7.99999982e-002 0. 0. 0. 0. 0. 0. 0. 0. 0. 0. 0. 0.
      3.99999991e-002 0. 0. 0. 0. 0. 0. 0. 0.</_>
    <_>
      0. 0. 2.17391308e-002 0. 4.34782617e-002 0. 0. 0. 2.17391308e-002
      2.17391308e-002 0. 0. 0. 6.52173907e-002 4.34782617e-002 0. 0. 0.
      0. 0. 0. 0. 0. 4.34782617e-002 6.52173907e-002 0. 2.17391308e-002
      0. 0. 0. 0. 0. 0. 0. 0. 0. 0. 0. 0. 0. 0. 0. 0. 0. 0. 0. 0. 0. 0.
      0. 0. 0. 0. 1.52173921e-001 0. 0. 6.52173907e-002 0. 0.
      8.69565234e-002 0. 0. 0. 0. 4.34782617e-002 0. 0. 0. 0.
      2.17391308e-002 0. 0. 4.34782617e-002 0. 0. 0. 0. 0.
      4.34782617e-002 0. 0. 0. 0. 0. 0. 0. 0. 8.69565234e-002 0. 0. 0.
      0. 4.34782617e-002 0. 0. 0. 0. 6.52173907e-002 0. 0.</_>
    <_>
      9.80392173e-002 0. 0. 0. 0. 0. 0. 0. 0. 1.17647067e-001 0. 0. 0.
      1.76470593e-001 0. 0. 1.96078438e-002 0. 1.96078438e-002 0. 0. 0.
      0. 0. 0. 0. 0. 0. 0. 0. 0. 0. 0. 0. 0. 1.96078438e-002 0. 0.
      7.84313753e-002 0. 0. 0. 0. 0. 0. 0. 0. 0. 0. 0. 0. 0. 0.
      5.88235334e-002 0. 0. 1.96078438e-002 0. 0. 3.92156877e-002
      1.96078438e-002 0. 0. 0. 1.37254909e-001 0. 0. 0. 0.
      1.96078438e-002 0. 0. 0. 0. 0. 0. 0. 0. 0. 0. 0. 0. 0. 0.
      5.88235334e-002 0. 0. 1.96078438e-002 0. 0. 0. 1.96078438e-002
      1.96078438e-002 5.88235334e-002 0. 0. 0. 0. 0. 0.</_>
    <_>
      7.14285746e-002 0. 2.38095243e-002 2.38095243e-002 4.76190485e-002
      0. 0. 0. 4.76190485e-002 4.76190485e-002 0. 0. 0. 0. 0. 0.
      2.38095243e-002 2.38095243e-002 2.38095243e-002 0. 0. 0. 0. 0. 0.
      0. 0. 7.14285746e-002 0. 0. 0. 0. 0. 0. 0. 0. 0. 0. 0. 0.
      2.38095243e-002 0. 0. 0. 0. 0. 0. 0. 0. 0. 0. 0. 0.
      2.38095243e-002 0. 0. 4.76190485e-002 2.38095243e-002 0.
      2.38095243e-002 0. 0. 0. 0. 0. 0. 4.76190485e-002 0. 0. 0. 0. 0.
      2.38095243e-002 0. 0. 0. 0. 0. 4.76190485e-002 2.38095243e-002 0.
      2.38095243e-002 0. 0. 0. 2.38095243e-002 0. 0. 0. 2.38095243e-002
      2.38095243e-002 2.38095243e-002 4.76190485e-002 0. 0.
      2.38095243e-002 2.38095243e-002 7.14285746e-002 2.38095243e-002 0.</_>
    <_>
      0. 0. 0. 0. 0. 0. 0. 0. 0. 0. 0. 0. 0. 0. 0. 0. 0. 0. 0. 0. 0. 0.
      0. 0. 0. 0. 0. 0. 0. 1.11111112e-001 0. 0. 0. 0. 0. 0. 0. 0. 0. 0.
      0. 0. 0. 0. 5.55555560e-002 1.11111112e-001 0. 0. 0. 0. 0. 0. 0.
      0. 0. 0. 0. 0. 0. 0. 0. 0. 0. 0. 1.11111112e-001 0. 0. 0. 0. 0. 0.
      0. 0. 1.11111112e-001 1.11111112e-001 0. 0. 0. 0. 0. 0. 0.
      2.22222224e-001 0. 0. 0. 0. 0. 0. 0. 0. 0. 0. 0. 0. 0. 0. 0. 0.
      1.66666672e-001</_>
    <_>
      0. 0. 0. 0. 0. 0. 0. 0. 0. 0. 0. 0. 0. 0. 0. 0. 0. 0. 0.
      1.11111112e-001 0. 0. 0. 0. 0. 0. 0. 0. 0. 0. 0. 0. 0. 0. 0. 0. 0.
      0. 0. 0. 1.11111112e-001 0. 0. 0. 5.55555560e-002 0. 0. 0. 0. 0.
      0. 0. 0. 0. 5.55555560e-002 0. 0. 5.55555560e-002 0. 0. 0. 0. 0.
      0. 0. 1.11111112e-001 0. 0. 0. 0. 0. 0. 5.55555560e-002
      5.55555560e-002 0. 0. 0. 0. 0. 0. 0. 0. 2.22222224e-001 0. 0. 0.
      0. 0. 0. 0. 0. 0. 0. 0. 0. 1.66666672e-001 0. 0. 0. 0.</_>
    <_>
      2.88461559e-002 0. 9.61538497e-003 2.88461559e-002 9.61538497e-003
      0. 0. 0. 0. 0. 2.88461559e-002 0. 0. 9.61538497e-003 0.
      1.92307699e-002 9.61538497e-003 9.61538497e-003 0. 1.92307699e-002
      0. 1.92307699e-002 0. 0. 4.80769239e-002 0. 1.92307699e-002
      9.61538497e-003 1.92307699e-002 1.92307699e-002 9.61538497e-003
      1.92307699e-002 1.92307699e-002 9.61538497e-003 0. 1.92307699e-002
      0. 0. 1.92307699e-002 9.61538497e-003 0. 0. 9.61538497e-003
      2.88461559e-002 2.88461559e-002 0. 1.92307699e-002 1.92307699e-002
      0. 0. 0. 2.88461559e-002 1.92307699e-002 0. 0. 0. 4.80769239e-002
      0. 0. 0. 9.61538497e-003 0. 0. 1.92307699e-002 9.61538497e-003
      9.61538497e-003 3.84615399e-002 1.92307699e-002 0. 9.61538497e-003
      9.61538497e-003 0. 0. 0. 9.61538497e-003 0. 0. 2.88461559e-002 0.
      1.92307699e-002 1.92307699e-002 1.92307699e-002 0. 0.
      1.92307699e-002 0. 2.88461559e-002 9.61538497e-003 1.92307699e-002
      0. 0. 0. 9.61538497e-003 0. 1.92307699e-002 2.88461559e-002
      9.61538497e-003 0. 9.61538497e-003 9.61538497e-003</_>
    <_>
      0. 0. 0. 2.43902430e-002 0. 0. 0. 0. 0. 0. 0. 0. 0. 0. 0.
      4.87804860e-002 0. 9.75609720e-002 0. 0. 2.43902430e-002 0. 0. 0.
      0. 2.43902430e-002 0. 0. 0. 0. 0. 0. 0. 0. 0. 0. 0. 0.
      7.31707290e-002 0. 0. 0. 2.43902430e-002 0. 4.87804860e-002 0. 0.
      0. 0. 2.43902430e-002 2.43902430e-002 0. 0. 0. 0. 0. 0.
      2.43902430e-002 0. 0. 0. 2.43902430e-002 0. 0. 4.87804860e-002 0.
      0. 4.87804860e-002 0. 2.43902430e-002 0. 0. 4.87804860e-002
      2.43902430e-002 0. 0. 0. 0. 2.43902430e-002 0. 0. 4.87804860e-002
      0. 0. 0. 0. 2.43902430e-002 1.70731694e-001 0. 0. 0. 0. 0. 0. 0.
      0. 0. 0. 0. 7.31707290e-002</_>
    <_>
      0. 9.52380970e-002 0. 0. 0. 0. 0. 0. 0. 0. 0. 0. 0. 0. 0. 0. 0. 0.
      0. 0. 0. 9.52380970e-002 0. 0. 0. 0. 0. 0. 0. 4.76190485e-002
      9.52380970e-002 0. 4.76190485e-002 0. 0. 4.76190485e-002 0. 0. 0.
      0. 0. 0. 0. 4.76190485e-002 0. 0. 0. 4.76190485e-002
      4.76190485e-002 4.76190485e-002 0. 0. 0. 0. 0. 0. 0. 0. 0. 0. 0.
      0. 0. 0. 0. 0. 9.52380970e-002 0. 0. 4.76190485e-002 0. 0.
      4.76190485e-002 0. 0. 0. 0. 0. 0. 0. 0. 0. 0. 0. 0. 0.
      4.76190485e-002 0. 0. 0. 0. 9.52380970e-002 0. 4.76190485e-002 0.
      0. 0. 0. 0. 0.</_>
    <_>
      7.46268639e-003 7.46268639e-003 0. 9.95024852e-003 1.49253728e-002
      0. 0. 0. 2.48756222e-002 0. 9.95024852e-003 0. 0. 4.72636819e-002
      3.48258689e-002 1.99004970e-002 1.74129345e-002 2.98507456e-002
      7.46268639e-003 0. 0. 0. 0. 7.46268639e-003 3.73134315e-002 0. 0.
      2.98507456e-002 7.46268639e-003 6.46766126e-002 0. 0.
      9.95024852e-003 0. 0. 2.48756222e-002 0. 0. 0. 7.46268639e-003 0.
      4.97512445e-002 9.95024852e-003 1.74129345e-002 0. 1.74129345e-002
      0. 0. 0. 1.99004970e-002 0. 0. 0. 0. 9.95024852e-003
      1.49253728e-002 0. 0. 0. 4.97512445e-002 0. 0. 1.24378111e-002 0.
      7.46268639e-003 0. 1.49253728e-002 0. 0. 7.46268639e-003
      1.24378111e-002 2.98507456e-002 9.95024852e-003 1.49253728e-002 0.
      0. 0. 0. 1.99004970e-002 1.99004970e-002 0. 2.73631830e-002
      7.46268639e-003 0. 9.95024852e-003 0. 7.46268639e-003
      7.46268639e-003 9.95024852e-003 9.95024852e-003 1.49253728e-002 0.
      9.95024852e-003 0. 0. 7.46268639e-003 1.49253728e-002 0. 0.
      7.46268639e-003</_>
    <_>
      1.14503819e-002 3.05343512e-002 7.63358781e-003 1.14503819e-002 0.
      7.63358781e-003 0. 7.63358781e-003 1.14503819e-002 7.63358781e-003
      7.63358781e-003 1.90839693e-002 7.63358781e-003 3.05343512e-002
      7.63358781e-003 1.52671756e-002 7.63358781e-003 3.43511440e-002
      7.63358781e-003 1.14503819e-002 1.52671756e-002 0. 1.14503819e-002
      0. 3.05343512e-002 1.14503819e-002 1.14503819e-002 0. 0.
      8.01526755e-002 0. 0. 7.63358781e-003 1.52671756e-002 0. 0. 0. 0.
      2.29007639e-002 0. 7.63358781e-003 7.63358781e-003 0.
      1.14503819e-002 7.63358781e-003 0. 0. 0. 0. 2.67175566e-002 0.
      7.63358781e-003 0. 1.52671756e-002 1.52671756e-002 0.
      7.63358781e-003 7.63358781e-003 7.63358781e-003 1.90839693e-002 0.
      1.14503819e-002 0. 0. 0. 0. 0. 0. 0. 0. 1.14503819e-002
      2.29007639e-002 2.67175566e-002 7.63358781e-003 0. 7.63358781e-003
      0. 0. 0. 3.43511440e-002 7.63358781e-003 1.52671756e-002
      1.90839693e-002 0. 1.14503819e-002 4.19847332e-002 2.29007639e-002
      1.52671756e-002 1.14503819e-002 0. 1.14503819e-002 2.67175566e-002
      0. 0. 1.14503819e-002 0. 0. 0. 1.14503819e-002 0.</_>
    <_>
      0. 2.07715128e-002 0. 0. 1.18694361e-002 0. 0. 1.78041533e-002
      1.18694361e-002 1.78041533e-002 1.78041533e-002 5.93471806e-003 0.
      4.15430255e-002 3.85756679e-002 5.93471806e-003 8.90207663e-003
      2.07715128e-002 0. 0. 1.18694361e-002 0. 5.93471806e-003
      1.18694361e-002 2.67062318e-002 5.93471806e-003 2.96735913e-002
      2.07715128e-002 0. 4.45103869e-002 0. 5.93471806e-003 0. 0.
      8.90207663e-003 5.93471806e-003 0. 0. 5.93471806e-003
      8.90207663e-003 0. 5.63798212e-002 8.90207663e-003 0. 0.
      5.93471806e-003 0. 0. 0. 2.96735913e-002 0. 8.90207663e-003
      8.90207663e-003 0. 1.18694361e-002 8.90207663e-003 0. 0.
      1.78041533e-002 4.15430255e-002 5.93471806e-003 1.48367956e-002
      5.93471806e-003 8.90207663e-003 1.18694361e-002 0. 8.90207663e-003
      0. 0. 5.93471806e-003 1.18694361e-002 2.07715128e-002
      1.48367956e-002 5.93471806e-003 0. 8.90207663e-003 0. 0.
      8.90207663e-003 3.56083065e-002 1.78041533e-002 1.18694361e-002
      1.18694361e-002 0. 1.18694361e-002 8.90207663e-003 0.
      1.18694361e-002 0. 0. 0. 1.48367956e-002 1.48367956e-002 0. 0. 0.
      1.18694361e-002 0. 0. 3.56083065e-002</_>
    <_>
      8.21917877e-003 1.36986300e-002 0. 0. 2.73972601e-002
      1.91780832e-002 1.64383575e-002 2.19178088e-002 2.73972601e-002
      5.47945220e-003 8.21917877e-003 0. 0. 4.93150689e-002
      1.91780832e-002 5.20547964e-002 0. 1.09589044e-002 0.
      5.47945220e-003 5.47945220e-003 8.21917877e-003 8.21917877e-003 0.
      1.09589044e-002 1.36986300e-002 8.21917877e-003 1.36986300e-002 0.
      4.93150689e-002 5.47945220e-003 0. 1.91780832e-002 1.09589044e-002
      0. 5.47945220e-003 0. 0. 0. 8.21917877e-003 0. 6.30137026e-002
      1.64383575e-002 8.21917877e-003 8.21917877e-003 1.09589044e-002
      1.91780832e-002 0. 0. 0. 1.09589044e-002 5.47945220e-003 0. 0. 0.
      8.21917877e-003 0. 0. 8.21917877e-003 5.47945201e-002 0. 0.
      5.47945220e-003 0. 2.19178088e-002 5.47945220e-003 8.21917877e-003
      0. 0. 8.21917877e-003 0. 1.91780832e-002 1.64383575e-002
      5.47945220e-003 0. 0. 0. 0. 1.09589044e-002 1.91780832e-002
      5.47945220e-003 5.47945220e-003 8.21917877e-003 0. 3.56164388e-002
      2.46575344e-002 3.01369876e-002 5.47945220e-003 5.47945220e-003 0.
      5.47945220e-003 5.47945220e-003 8.21917877e-003 0. 1.64383575e-002
      5.47945220e-003 0. 0. 5.47945220e-003 1.36986300e-002</_>
    <_>
      0. 2.20048912e-002 0. 0. 7.33496342e-003 1.46699268e-002
      7.33496342e-003 1.46699268e-002 2.93398537e-002 7.33496342e-003 0.
      7.33496342e-003 0. 3.66748199e-002 3.17848437e-002 1.46699268e-002
      0. 9.77995154e-003 9.77995154e-003 1.22249397e-002 0.
      1.95599031e-002 0. 7.33496342e-003 9.77995154e-003 0. 0.
      7.33496342e-003 0. 4.40097824e-002 0. 0. 7.33496342e-003 0.
      1.46699268e-002 0. 0. 0. 7.33496342e-003 9.77995154e-003 0.
      3.91198061e-002 9.77995154e-003 0. 7.33496342e-003 9.77995154e-003
      9.77995154e-003 0. 0. 1.22249397e-002 1.22249397e-002
      1.46699268e-002 7.33496342e-003 0. 7.33496342e-003 0. 0. 0. 0.
      2.93398537e-002 7.33496342e-003 0. 0. 1.46699268e-002
      7.33496342e-003 1.22249397e-002 2.93398537e-002 0. 0.
      9.77995154e-003 7.33496342e-003 3.42298299e-002 2.44498793e-002
      4.64547686e-002 0. 0. 0. 0. 7.33496342e-003 2.68948674e-002 0. 0.
      0. 0. 2.93398537e-002 2.44498793e-002 9.77995154e-003
      7.33496342e-003 9.77995154e-003 0. 0. 1.22249397e-002 0. 0.
      1.95599031e-002 1.71149150e-002 7.33496342e-003 9.77995154e-003 0.
      1.46699268e-002</_>
    <_>
      0. 0. 0. 0. 8.92857183e-003 1.07142866e-001 0. 0. 0.
      5.35714328e-002 0. 0. 0. 0. 0. 8.92857183e-003 8.92857183e-003 0.
      0. 0. 0. 8.92857183e-003 8.92857183e-003 0. 0. 0. 0. 0. 0.
      8.92857164e-002 0. 0. 8.92857183e-003 0. 2.67857164e-002 0. 0. 0.
      8.92857183e-003 0. 0. 0. 0. 2.67857164e-002 8.92857183e-003 0. 0.
      0. 0. 4.46428582e-002 0. 8.92857183e-003 1.78571437e-002 0. 0.
      8.92857183e-003 0. 0. 3.57142873e-002 3.57142873e-002
      4.46428582e-002 0. 0. 0. 0. 0. 0. 8.92857183e-003 0. 0.
      1.78571437e-002 1.78571437e-002 1.78571437e-002 0. 6.25000000e-002
      0. 1.78571437e-002 0. 0. 0. 8.92857183e-003 5.35714328e-002 0. 0.
      8.92857183e-003 1.78571437e-002 2.67857164e-002 0. 0. 0.
      8.92857183e-003 1.78571437e-002 8.92857183e-003 0. 2.67857164e-002
      8.92857183e-003 0. 0. 2.67857164e-002 7.14285746e-002</_>
    <_>
      0. 0. 0. 0. 1.47058824e-002 1.47058824e-002 0. 4.41176482e-002 0.
      2.94117648e-002 1.47058824e-002 1.47058824e-002 0. 1.47058824e-002
      0. 0. 0. 0. 4.41176482e-002 0. 1.47058824e-002 4.41176482e-002 0.
      0. 0. 0. 0. 0. 0. 5.88235296e-002 0. 0. 0. 0. 1.02941178e-001
      1.47058824e-002 0. 0. 0. 0. 0. 5.88235296e-002 0. 0. 0.
      1.47058824e-002 0. 0. 2.94117648e-002 0. 0. 0. 0. 0. 0.
      1.47058824e-002 0. 0. 2.94117648e-002 0. 2.94117648e-002
      1.47058824e-002 0. 1.47058824e-002 1.47058824e-002 0. 0.
      7.35294148e-002 1.47058824e-002 0. 0. 1.47058824e-002
      1.47058824e-002 0. 4.41176482e-002 0. 4.41176482e-002 0. 0. 0. 0.
      1.47058824e-002 2.94117648e-002 0. 0. 1.47058824e-002
      1.47058824e-002 0. 1.47058824e-002 0. 0. 0. 0. 1.47058824e-002 0.
      0. 0. 0. 2.94117648e-002 1.47058824e-002</_>
    <_>
      9.99999978e-003 7.99999982e-002 9.99999978e-003 0. 1.99999996e-002
      0. 0. 1.99999996e-002 0. 2.99999993e-002 9.99999978e-003 0.
      3.99999991e-002 0. 0. 9.99999978e-003 0. 0. 0. 0. 0.
      1.99999996e-002 0. 9.99999978e-003 0. 0. 0. 0. 0. 7.00000003e-002
      9.99999978e-003 0. 0. 0. 5.99999987e-002 9.99999978e-003
      1.99999996e-002 0. 0. 0. 9.99999978e-003 0. 3.99999991e-002
      1.99999996e-002 1.99999996e-002 0. 0. 1.99999996e-002
      2.99999993e-002 0. 0. 0. 0. 1.99999996e-002 0. 0. 2.99999993e-002
      0. 0. 0. 9.99999978e-003 9.99999978e-003 9.99999978e-003 0. 0. 0.
      0. 1.99999996e-002 9.99999978e-003 0. 1.99999996e-002
      7.99999982e-002 0. 0. 0. 0. 9.99999978e-003 0. 0. 0.
      4.99999970e-002 0. 0. 0. 9.99999978e-003 9.99999978e-003 0.
      1.99999996e-002 0. 0. 1.99999996e-002 0. 0. 0. 9.99999978e-003
      2.99999993e-002 2.99999993e-002 0. 0. 2.99999993e-002</_>
    <_>
      0. 0. 0. 0. 0. 0. 0. 0. 0. 0. 0. 0. 0. 0. 0. 0. 0. 0. 0. 0. 0. 0.
      0. 0. 0. 0. 0. 0. 0. 4.00000006e-001 0. 0. 5.00000007e-002 0. 0.
      0. 3.49999994e-001 0. 0. 0. 0. 0. 0. 0. 0. 0. 0. 0. 0. 0. 0. 0. 0.
      0. 0. 0. 0. 0. 0. 0. 0. 0. 0. 0. 1.00000001e-001 0. 0. 0. 0. 0. 0.
      0. 0. 1.00000001e-001 0. 0. 0. 0. 0. 0. 0. 0. 0. 0. 0. 0. 0. 0. 0.
      0. 0. 0. 0. 0. 0. 0. 0. 0. 0. 0.</_>
    <_>
      5.29100513e-003 1.58730149e-002 0. 5.29100513e-003 0. 0.
      1.05820103e-002 2.11640205e-002 1.05820103e-002 0. 1.58730149e-002
      0. 1.58730149e-002 2.64550261e-002 5.29100513e-003 0.
      5.29100513e-003 2.64550261e-002 5.29100513e-003 5.29100513e-003
      1.05820103e-002 0. 5.29100513e-003 0. 2.11640205e-002 0.
      1.05820103e-002 2.64550261e-002 2.11640205e-002 5.29100513e-003
      5.29100513e-003 1.05820103e-002 2.64550261e-002 3.17460299e-002
      1.05820103e-002 1.05820103e-002 1.58730149e-002 0. 1.58730149e-002
      0. 0. 1.05820103e-002 2.64550261e-002 5.29100513e-003
      4.23280410e-002 1.58730149e-002 3.70370373e-002 0. 0.
      5.29100513e-003 1.05820103e-002 5.29100513e-003 0. 1.58730149e-002
      1.05820103e-002 1.58730149e-002 0. 5.29100513e-003 1.05820103e-002
      2.11640205e-002 1.58730149e-002 0. 2.11640205e-002 1.58730149e-002
      1.58730149e-002 1.05820103e-002 2.64550261e-002 5.29100513e-003 0.
      5.29100513e-003 1.05820103e-002 1.58730149e-002 5.29100513e-003
      5.29100513e-003 4.23280410e-002 1.05820103e-002 0. 0.
      5.29100513e-003 5.29100513e-003 5.29100513e-003 3.17460299e-002
      1.58730149e-002 0. 5.29100513e-003 5.29100513e-003 0.
      1.05820103e-002 5.29100513e-003 0. 5.29100513e-003 1.58730149e-002
      0. 5.29100513e-003 1.58730149e-002 1.05820103e-002 0.
      1.05820103e-002 0. 0.</_>
    <_>
      0. 0. 0. 0. 4.05405425e-002 0. 0. 0. 1.35135138e-002
      6.75675720e-002 2.70270277e-002 0. 0. 0. 0. 1.35135138e-002
      1.35135138e-002 0. 0. 0. 0. 0. 0. 5.40540554e-002 2.70270277e-002
      0. 0. 0. 0. 0. 0. 0. 0. 0. 0. 0. 2.70270277e-002 0. 0. 0. 0. 0. 0.
      0. 0. 0. 0. 0. 0. 4.05405425e-002 0. 0. 0. 0. 0. 0. 0. 0. 0.
      2.70270277e-002 0. 0. 0. 0. 0. 0. 0. 4.05405425e-002 0.
      1.35135144e-001 0. 0. 0. 0. 0. 5.40540554e-002 4.05405425e-002 0.
      0. 0. 0. 0. 0. 1.08108111e-001 0. 0. 0. 4.05405425e-002 0.
      1.35135138e-002 0. 0. 2.70270277e-002 4.05405425e-002 0. 0. 0. 0.
      1.48648649e-001 0.</_>
    <_>
      0. 0. 8.62068962e-003 0. 0. 0. 0. 8.62068962e-003 3.44827585e-002
      2.58620679e-002 4.31034490e-002 0. 0. 0. 1.72413792e-002 0.
      8.62068962e-003 0. 1.72413792e-002 0. 0. 0. 3.44827585e-002
      6.03448264e-002 0. 8.62068962e-003 8.62068962e-003 2.58620679e-002
      0. 0. 0. 0. 0. 0. 0. 0. 0. 0. 0. 0. 0. 1.72413792e-002 0. 0.
      2.58620679e-002 6.89655170e-002 0. 2.58620679e-002 1.72413792e-002
      2.58620679e-002 0. 0. 0. 0. 8.62068962e-003 8.62068962e-003
      2.58620679e-002 2.58620679e-002 0. 0. 1.72413792e-002
      8.62068962e-003 0. 0. 0. 1.72413792e-002 8.62068962e-003
      2.58620679e-002 0. 8.62068962e-003 0. 0. 0. 0. 0. 0. 0.
      1.72413792e-002 0. 2.58620679e-002 8.62068962e-003 0.
      7.75862038e-002 2.58620679e-002 0. 1.72413792e-002 0.
      6.03448264e-002 1.72413792e-002 0. 0. 0. 0. 0. 0. 3.44827585e-002
      1.72413792e-002 5.17241359e-002 8.62068962e-003 0.</_>
    <_>
      0. 0. 0. 0. 0. 0. 0. 5.50458692e-002 0. 0. 8.25688019e-002
      1.83486231e-002 0. 0. 1.83486231e-002 0. 9.17431153e-003
      2.75229346e-002 9.17431116e-002 0. 1.83486231e-002 0.
      9.17431153e-003 1.83486231e-002 0. 0. 9.17431153e-003
      5.50458692e-002 0. 0. 0. 0. 0. 0. 0. 0. 0. 0. 0. 0.
      1.83486231e-002 0. 0. 0. 9.17431153e-003 1.00917429e-001
      9.17431153e-003 0. 7.33944923e-002 2.75229346e-002 0. 0.
      2.75229346e-002 0. 0. 0. 0. 4.58715558e-002 2.75229346e-002 0. 0.
      1.83486231e-002 9.17431153e-003 0. 2.75229346e-002 0. 0.
      9.17431153e-003 0. 0. 1.83486231e-002 0. 0. 0. 9.17431153e-003 0.
      1.83486231e-002 0. 0. 0. 0. 0. 0. 6.42201826e-002 0. 0. 0.
      9.17431153e-003 0. 0. 0. 0. 0. 0. 0. 2.75229346e-002 0.
      3.66972461e-002 0. 0.</_>
    <_>
      5.79710156e-002 0. 0. 0. 2.89855078e-002 0. 1.44927539e-002
      2.17391308e-002 0. 0. 0. 0. 0. 0. 0. 2.89855078e-002
      1.44927539e-002 0. 0. 2.17391308e-002 0. 2.89855078e-002 0. 0.
      2.17391308e-002 1.44927539e-002 0. 0. 0. 2.89855078e-002 0. 0. 0.
      0. 0. 2.89855078e-002 0. 0. 0. 4.34782617e-002 0. 0. 0. 0. 0. 0.
      0. 0. 0. 3.62318829e-002 0. 7.24637695e-003 0. 0. 0. 0. 0.
      4.34782617e-002 0. 1.44927539e-002 0. 0. 7.24637695e-003 0. 0.
      7.24637695e-003 0. 0. 0. 7.24637695e-003 0. 2.17391308e-002 0.
      1.52173921e-001 0. 0. 0. 4.34782617e-002 0. 5.07246405e-002 0.
      7.24637695e-003 0. 0. 0. 1.44927539e-002 6.52173907e-002
      2.89855078e-002 0. 0. 0. 0. 0. 0. 5.79710156e-002 0. 0.
      7.24637695e-003 0. 7.24637657e-002</_>
    <_>
      0. 0. 0. 0. 0. 0. 0. 3.38983051e-002 5.08474559e-002 0.
      8.47457647e-002 3.38983051e-002 0. 0. 1.69491526e-002 0. 0. 0. 0.
      0. 0. 0. 0. 0. 3.38983051e-002 0. 1.69491526e-002 1.69491526e-002
      0. 0. 0. 0. 0. 3.38983051e-002 0. 0. 0. 0. 0. 0. 0. 0. 0. 0. 0. 0.
      0. 0. 0. 1.01694912e-001 0. 0. 0. 0. 0. 3.38983051e-002 0. 0.
      1.69491526e-002 0. 0. 0. 0. 0. 0. 0. 0. 0. 8.47457647e-002
      1.69491526e-002 0. 0. 0. 0. 0. 0. 0. 5.08474559e-002 0.
      3.38983051e-002 0. 0. 0. 0. 0. 1.35593221e-001 0. 8.47457647e-002
      0. 3.38983051e-002 1.69491526e-002 0. 0. 0. 0. 1.69491526e-002 0.
      0. 5.08474559e-002 0.</_>
    <_>
      0. 0. 0. 0. 0. 0. 0. 6.66666701e-002 0. 1.33333340e-001 0.
      6.66666701e-002 0. 0. 0. 0. 0. 0. 0. 0. 0. 0. 0. 0. 0. 0. 0. 0. 0.
      0. 0. 6.66666701e-002 2.00000018e-001 0. 0. 0. 0. 0. 0. 0. 0. 0.
      0. 0. 6.66666701e-002 0. 0. 0. 0. 6.66666701e-002 0. 0.
      6.66666701e-002 0. 0. 0. 0. 0. 0. 0. 0. 0. 0. 0. 0. 0. 0. 0. 0. 0.
      0. 0. 0. 0. 0. 0. 0. 0. 0. 6.66666701e-002 6.66666701e-002 0. 0.
      6.66666701e-002 0. 0. 0. 0. 0. 0. 0. 0. 0. 0. 0. 0. 0.
      6.66666701e-002 0. 0.</_>
    <_>
      1.74459163e-002 0. 9.76971351e-003 0. 2.02372633e-002 0.
      9.07187723e-003 9.07187723e-003 1.81437545e-002 1.95394270e-002
      2.65177935e-002 0. 1.81437545e-002 1.88415907e-002 1.11653870e-002
      8.37404002e-003 2.44242847e-002 0. 2.51221210e-002 9.76971351e-003
      1.18632233e-002 7.67620374e-003 9.76971351e-003 1.53524075e-002
      9.07187723e-003 0. 1.74459163e-002 0. 0. 3.27983238e-002
      9.76971351e-003 2.16329377e-002 1.04675507e-002 0. 0.
      1.60502438e-002 2.09351014e-002 0. 1.18632233e-002 0.
      9.76971351e-003 0. 0. 0. 0. 0. 0. 1.04675507e-002 0. 0.
      5.58269350e-003 0. 0. 1.18632233e-002 2.02372633e-002 0.
      2.30286103e-002 6.97836699e-003 0. 0. 1.81437545e-002
      5.58269350e-003 0. 0. 1.18632233e-002 0. 1.46545703e-002
      1.67480800e-002 0. 4.67550568e-002 7.67620374e-003 1.04675507e-002
      0. 1.11653870e-002 7.67620374e-003 1.04675507e-002 0.
      9.76971351e-003 6.97836699e-003 9.07187723e-003 0. 6.28053024e-003
      0. 6.28053024e-003 5.58269350e-003 1.39567340e-002 0.
      2.02372633e-002 7.67620374e-003 2.02372633e-002 1.88415907e-002 0.
      1.67480800e-002 1.18632233e-002 0. 0. 7.67620374e-003
      1.74459163e-002 1.39567340e-002 1.11653870e-002</_>
    <_>
      1.76817290e-002 0. 2.55402755e-002 2.55402755e-002 2.94695497e-002
      1.96463652e-002 1.37524568e-002 5.89390984e-003 9.82318260e-003 0.
      3.33988219e-002 9.82318260e-003 2.94695497e-002 4.32220064e-002
      7.85854645e-003 4.71512787e-002 9.82318260e-003 0. 1.17878197e-002
      0. 2.35756394e-002 0. 7.85854645e-003 0. 0. 2.35756394e-002
      1.57170929e-002 1.17878197e-002 0. 0. 0. 2.75049135e-002 0.
      1.96463652e-002 0. 1.76817290e-002 1.57170929e-002 1.76817290e-002
      3.53634581e-002 0. 0. 9.82318260e-003 5.89390984e-003
      7.85854645e-003 0. 7.85854645e-003 7.85854645e-003 0. 0.
      1.17878197e-002 0. 0. 0. 0. 2.35756394e-002 0. 0. 0. 0.
      9.82318260e-003 0. 0. 1.17878197e-002 1.76817290e-002 0. 0. 0.
      5.89390984e-003 5.89390984e-003 3.14341858e-002 0. 1.76817290e-002
      1.17878197e-002 0. 1.76817290e-002 0. 0. 0. 1.57170929e-002 0. 0.
      0. 0. 0. 1.17878197e-002 9.82318260e-003 0. 1.76817290e-002 0.
      3.53634581e-002 9.82318260e-003 7.85854645e-003 2.16110032e-002
      7.85854645e-003 0. 0. 7.85854645e-003 7.85854645e-003
      2.35756394e-002 0.</_>
    <_>
      0. 0. 9.45626479e-003 0. 1.18203312e-002 0. 7.09219836e-003 0.
      6.14657216e-002 3.30969281e-002 1.89125296e-002 7.09219836e-003 0.
      2.83687934e-002 1.41843967e-002 2.83687934e-002 1.18203312e-002 0.
      1.18203312e-002 0. 0. 0. 0. 1.18203312e-002 1.18203312e-002 0.
      2.12765951e-002 1.65484641e-002 1.41843967e-002 0. 9.45626479e-003
      7.09219836e-003 1.18203312e-002 2.60047279e-002 0. 0.
      1.65484641e-002 0. 2.83687934e-002 0. 0. 1.41843967e-002 0. 0.
      1.18203312e-002 0. 1.89125296e-002 0. 0. 0. 1.18203312e-002 0. 0.
      7.09219836e-003 5.20094559e-002 0. 0. 7.09219836e-003 0.
      1.18203312e-002 0. 7.09219836e-003 1.65484641e-002 2.60047279e-002
      1.89125296e-002 0. 0. 7.09219836e-003 0. 3.30969281e-002 0. 0. 0.
      0. 2.83687934e-002 0. 0. 0. 1.18203312e-002 1.65484641e-002 0. 0.
      0. 2.12765951e-002 0. 1.18203312e-002 0. 9.45626479e-003 0.
      1.89125296e-002 1.18203312e-002 6.61938563e-002 3.78250591e-002
      1.18203312e-002 0. 1.65484641e-002 1.41843967e-002 0.
      1.18203312e-002 0.</_>
    <_>
      9.31928679e-003 5.26742311e-003 1.66126415e-002 1.05348462e-002 0.
      6.88816840e-003 0. 2.51215547e-002 1.13452189e-002 0.
      6.07779576e-003 6.07779576e-003 1.58022679e-002 0. 5.67260943e-003
      0. 6.48298208e-003 7.29335472e-003 0. 1.09400321e-002 0.
      9.72447358e-003 0. 0. 1.41815236e-002 0. 6.48298208e-003
      9.31928679e-003 7.69854104e-003 1.70178283e-002 6.48298208e-003
      3.60615887e-002 2.22852509e-002 8.10372736e-003 0. 8.10372736e-003
      3.64667736e-002 8.91410001e-003 0. 0. 0. 1.53970821e-002
      6.48298208e-003 1.37763368e-002 2.63371151e-002 1.05348462e-002
      5.79416528e-002 8.10372736e-003 6.07779576e-003 8.10372736e-003
      2.47163698e-002 5.67260943e-003 1.49918962e-002 2.14748774e-002
      1.13452189e-002 1.01296594e-002 0. 0. 0. 1.05348462e-002
      9.72447358e-003 1.05348462e-002 2.18800642e-002 3.40356566e-002
      1.49918962e-002 0. 1.74230151e-002 5.26742311e-003 0.
      6.48298208e-003 0. 3.28200981e-002 6.07779576e-003 6.88816840e-003
      2.14748774e-002 2.35008094e-002 0. 0. 8.91410001e-003
      1.21555915e-002 0. 5.67260943e-003 1.62074547e-002 0.
      6.48298208e-003 5.26742311e-003 0. 0. 0. 8.91410001e-003 0.
      6.07779576e-003 0. 1.37763368e-002 6.48298208e-003 1.13452189e-002
      9.72447358e-003 0. 0. 1.13452189e-002</_>
    <_>
      1.23661403e-002 7.77664501e-003 3.17440107e-002 7.39418715e-003
      1.10912807e-002 9.56144836e-003 0. 1.04538510e-002 1.83579810e-002
      8.66904669e-003 1.61907189e-002 1.09637948e-002 2.29474772e-002
      7.52167311e-003 1.42784305e-002 8.79653264e-003 0. 5.09943906e-003
      5.73686929e-003 0. 7.77664501e-003 0. 6.75675692e-003
      1.49158603e-002 2.12901589e-002 8.54156073e-003 2.35849060e-002 0.
      0. 1.74655803e-002 6.24681311e-003 1.52983181e-002 5.48189739e-003
      1.49158603e-002 6.62927097e-003 5.73686929e-003 1.21111684e-002
      9.68893431e-003 1.01988781e-002 6.24681311e-003 8.41407478e-003
      1.03263650e-002 8.28658883e-003 8.15910287e-003 1.31310560e-002
      5.22692548e-003 0. 9.94390622e-003 0. 5.09943906e-003 0.
      7.77664501e-003 0. 1.24936262e-002 1.13462526e-002 1.07088229e-002
      0. 0. 8.03161692e-003 6.24681311e-003 5.86435525e-003
      1.26211122e-002 1.32585419e-002 1.91228967e-002 7.39418715e-003 0.
      8.28658883e-003 6.88424287e-003 0. 9.30647645e-003 8.79653264e-003
      2.53697112e-002 6.24681311e-003 8.92401859e-003 9.17899050e-003
      8.92401859e-003 0. 0. 9.68893431e-003 9.81642026e-003 0.
      7.77664501e-003 1.18561964e-002 5.22692548e-003 1.07088229e-002
      1.32585419e-002 5.86435525e-003 2.01427843e-002 1.17287105e-002 0.
      2.20550746e-002 9.94390622e-003 2.47322805e-002 1.79755241e-002 0.
      1.22386543e-002 2.67720558e-002 6.37429906e-003 1.49158603e-002
      6.75675692e-003</_>
    <_>
      1.57255195e-002 1.07219443e-002 2.07290929e-002 9.29235201e-003
      5.71837043e-003 9.29235201e-003 6.43316656e-003 7.14796316e-003
      1.21515375e-002 1.14367409e-002 1.07219443e-002 1.50107220e-002
      1.50107220e-002 0. 0. 1.42959263e-002 0. 6.43316656e-003 0.
      1.07219443e-002 7.86275975e-003 0. 0. 7.14796316e-003
      1.28663331e-002 1.42959263e-002 2.71622594e-002 1.00071486e-002 0.
      1.28663331e-002 2.28734817e-002 0. 5.71837043e-003 7.86275975e-003
      8.57755542e-003 5.00357430e-003 0. 0. 1.07219443e-002
      5.71837043e-003 0. 1.07219443e-002 1.78699084e-002 1.35811297e-002
      7.14796316e-003 7.14796316e-003 0. 0. 1.42959263e-002
      8.57755542e-003 5.00357430e-003 8.57755542e-003 7.14796316e-003 0.
      1.57255195e-002 1.14367409e-002 0. 0. 9.29235201e-003 0.
      9.29235201e-003 1.85847040e-002 1.78699084e-002 2.14438885e-002
      7.86275975e-003 1.57255195e-002 1.35811297e-002 9.29235201e-003
      5.00357430e-003 1.14367409e-002 1.07219443e-002 7.86275975e-003 0.
      1.85847040e-002 5.71837043e-003 0. 0. 7.14796316e-003
      1.00071486e-002 9.29235201e-003 0. 2.07290929e-002 1.42959263e-002
      5.00357430e-003 2.07290929e-002 1.57255195e-002 7.14796316e-003
      1.50107220e-002 1.85847040e-002 0. 2.35882774e-002 1.00071486e-002
      3.64546105e-002 6.43316656e-003 0. 1.00071486e-002 2.85918526e-002
      0. 2.00142972e-002 1.57255195e-002</_>
    <_>
      5.93311712e-003 0. 1.24056088e-002 8.62998888e-003 7.01186620e-003
      7.01186620e-003 1.67206042e-002 0. 8.62998888e-003 1.13268606e-002
      1.13268606e-002 1.07874861e-002 8.09061434e-003 1.02481116e-002
      1.34843579e-002 1.34843579e-002 9.70873795e-003 0. 1.51024805e-002
      5.93311712e-003 7.01186620e-003 1.18662342e-002 7.55124027e-003 0.
      1.18662342e-002 1.07874861e-002 9.70873795e-003 8.09061434e-003
      5.39374305e-003 3.39805819e-002 1.83387268e-002 1.18662342e-002
      1.99568495e-002 1.29449833e-002 6.47249166e-003 1.34843579e-002
      1.24056088e-002 1.24056088e-002 6.47249166e-003 8.62998888e-003 0.
      9.70873795e-003 9.16936342e-003 0. 0. 1.02481116e-002 0. 0.
      7.01186620e-003 7.55124027e-003 1.88781004e-002 0. 6.47249166e-003
      1.51024805e-002 2.85868384e-002 5.39374305e-003 8.62998888e-003
      1.02481116e-002 1.72599778e-002 0. 5.93311712e-003 1.02481116e-002
      7.01186620e-003 0. 0. 1.72599778e-002 1.18662342e-002
      7.55124027e-003 5.39374305e-003 2.15749722e-002 0. 4.09924462e-002
      1.24056088e-002 1.24056088e-002 0. 1.24056088e-002 0. 0.
      7.55124027e-003 1.13268606e-002 1.34843579e-002 7.55124027e-003
      7.01186620e-003 1.94174759e-002 1.45631060e-002 5.93311712e-003
      1.72599778e-002 5.93311712e-003 5.39374305e-003 1.07874861e-002
      1.24056088e-002 0. 8.62998888e-003 0. 1.56418551e-002
      8.62998888e-003 7.55124027e-003 9.70873795e-003 1.34843579e-002
      1.18662342e-002</_>
    <_>
      0. 0. 0. 0. 0. 0. 0. 0. 0. 0. 0. 0. 0. 0. 0. 0. 0. 0. 0. 0. 0. 0.
      0. 0. 0. 0. 0. 0. 0. 2.60869563e-001 8.69565234e-002 0. 0.
      8.69565234e-002 0. 0. 0. 0. 0. 0. 0. 0. 0. 0. 0. 0. 0. 0. 0. 0.
      4.34782617e-002 0. 0. 0. 0. 0. 0. 0. 0. 0. 0. 4.34782617e-002 0.
      0. 0. 0. 0. 0. 0. 0. 0. 2.17391312e-001 0. 0. 0. 8.69565234e-002
      0. 0. 0. 0. 0. 0. 0. 0. 0. 0. 8.69565234e-002 0. 0. 0. 0. 0. 0. 0.
      0. 8.69565234e-002 0. 0. 0. 0.</_>
    <_>
      1.11111114e-002 1.66666675e-002 2.22222228e-002 1.11111114e-002
      5.55555569e-003 0. 0. 0. 0. 9.44444463e-002 1.11111114e-002
      5.55555569e-003 3.33333351e-002 1.11111114e-002 0. 1.11111114e-002
      0. 0. 0. 0. 0. 0. 0. 4.44444455e-002 0. 5.55555569e-003
      5.00000007e-002 5.55555569e-003 0. 0. 0. 0. 0. 0. 1.11111114e-002
      0. 0. 0. 0. 8.88888910e-002 0. 0. 4.44444455e-002 0. 0. 0. 0.
      5.55555569e-003 1.11111114e-002 0. 0. 5.00000007e-002
      1.11111114e-002 0. 0. 0. 0. 1.11111114e-002 0. 0. 0. 0. 0. 0.
      3.88888903e-002 0. 0. 0. 0. 6.66666701e-002 0. 1.66666675e-002 0.
      0. 0. 0. 2.77777780e-002 0. 5.55555569e-003 3.33333351e-002
      8.88888910e-002 0. 0. 5.55555569e-003 0. 0. 5.55555569e-003
      2.22222228e-002 0. 0. 0. 1.66666675e-002 6.11111112e-002 0.
      1.66666675e-002 0. 0. 0. 1.66666675e-002 5.55555569e-003</_>
    <_>
      1.94805190e-002 6.49350649e-003 0. 6.49350649e-003 1.29870130e-002
      0. 8.65800865e-003 0. 1.08225103e-002 2.16450207e-002
      6.49350649e-003 1.29870130e-002 8.65800865e-003 3.24675329e-002
      1.08225103e-002 0. 8.65800865e-003 0. 1.08225103e-002 0. 0.
      6.49350649e-003 0. 0. 0. 0. 1.08225103e-002 6.49350649e-003 0.
      6.27705604e-002 1.51515156e-002 0. 0. 1.73160173e-002
      1.08225103e-002 0. 1.51515156e-002 6.49350649e-003 0.
      1.08225103e-002 8.65800865e-003 1.29870130e-002 0. 6.49350649e-003
      0. 0. 0. 4.97835502e-002 0. 0. 0. 2.16450207e-002 1.94805190e-002
      4.11255397e-002 1.73160173e-002 0. 4.76190485e-002 8.65800865e-003
      0. 0. 0. 0. 0. 0. 0. 1.51515156e-002 4.11255397e-002 0.
      1.94805190e-002 2.59740259e-002 1.94805190e-002 2.81385276e-002 0.
      0. 0. 0. 1.51515156e-002 0. 8.65800865e-003 8.65800865e-003
      8.65800865e-003 8.65800865e-003 0. 2.38095243e-002 0. 0.
      6.49350649e-003 1.29870130e-002 1.08225103e-002 4.32900414e-002 0.
